{"learner":{"attributes":{"scikit_learn":"{\"_estimator_type\": \"classifier\"}"},"feature_names":[],"feature_types":[],"gradient_booster":{"model":{"cats":{"enc":[],"feature_segments":[],"sorted_idx":[]},"gbtree_model_param":{"num_parallel_tree":"1","num_trees":"4500"},"iteration_indptr":[0,9,18,27,36,45,54,63,72,81,90,99,108,117,126,135,144,153,162,171,180,189,198,207,216,225,234,243,252,261,270,279,288,297,306,315,324,333,342,351,360,369,378,387,396,405,414,423,432,441,450,459,468,477,486,495,504,513,522,531,540,549,558,567,576,585,594,603,612,621,630,639,648,657,666,675,684,693,702,711,720,729,738,747,756,765,774,783,792,801,810,819,828,837,846,855,864,873,882,891,900,909,918,927,936,945,954,963,972,981,990,999,1008,1017,1026,1035,1044,1053,1062,1071,1080,1089,1098,1107,1116,1125,1134,1143,1152,1161,1170,1179,1188,1197,1206,1215,1224,1233,1242,1251,1260,1269,1278,1287,1296,1305,1314,1323,1332,1341,1350,1359,1368,1377,1386,1395,1404,1413,1422,1431,1440,1449,1458,1467,1476,1485,1494,1503,1512,1521,1530,1539,1548,1557,1566,1575,1584,1593,1602,1611,1620,1629,1638,1647,1656,1665,1674,1683,1692,1701,1710,1719,1728,1737,1746,1755,1764,1773,1782,1791,1800,1809,1818,1827,1836,1845,1854,1863,1872,1881,1890,1899,1908,1917,1926,1935,1944,1953,1962,1971,1980,1989,1998,2007,2016,2025,2034,2043,2052,2061,2070,2079,2088,2097,2106,2115,2124,2133,2142,2151,2160,2169,2178,2187,2196,2205,2214,2223,2232,2241,2250,2259,2268,2277,2286,2295,2304,2313,2322,2331,2340,2349,2358,2367,2376,2385,2394,2403,2412,2421,2430,2439,2448,2457,2466,2475,2484,2493,2502,2511,2520,2529,2538,2547,2556,2565,2574,2583,2592,2601,2610,2619,2628,2637,2646,2655,2664,2673,2682,2691,2700,2709,2718,2727,2736,2745,2754,2763,2772,2781,2790,2799,2808,2817,2826,2835,2844,2853,2862,2871,2880,2889,2898,2907,2916,2925,2934,2943,2952,2961,2970,2979,2988,2997,3006,3015,3024,3033,3042,3051,3060,3069,3078,3087,3096,3105,3114,3123,3132,3141,3150,3159,3168,3177,3186,3195,3204,3213,3222,3231,3240,3249,3258,3267,3276,3285,3294,3303,3312,3321,3330,3339,3348,3357,3366,3375,3384,3393,3402,3411,3420,3429,3438,3447,3456,3465,3474,3483,3492,3501,3510,3519,3528,3537,3546,3555,3564,3573,3582,3591,3600,3609,3618,3627,3636,3645,3654,3663,3672,3681,3690,3699,3708,3717,3726,3735,3744,3753,3762,3771,3780,3789,3798,3807,3816,3825,3834,3843,3852,3861,3870,3879,3888,3897,3906,3915,3924,3933,3942,3951,3960,3969,3978,3987,3996,4005,4014,4023,4032,4041,4050,4059,4068,4077,4086,4095,4104,4113,4122,4131,4140,4149,4158,4167,4176,4185,4194,4203,4212,4221,4230,4239,4248,4257,4266,4275,4284,4293,4302,4311,4320,4329,4338,4347,4356,4365,4374,4383,4392,4401,4410,4419,4428,4437,4446,4455,4464,4473,4482,4491,4500],"tree_info":[0,1,2,3,4,5,6,7,8,0,1,2,3,4,5,6,7,8,0,1,2,3,4,5,6,7,8,0,1,2,3,4,5,6,7,8,0,1,2,3,4,5,6,7,8,0,1,2,3,4,5,6,7,8,0,1,2,3,4,5,6,7,8,0,1,2,3,4,5,6,7,8,0,1,2,3,4,5,6,7,8,0,1,2,3,4,5,6,7,8,0,1,2,3,4,5,6,7,8,0,1,2,3,4,5,6,7,8,0,1,2,3,4,5,6,7,8,0,1,2,3,4,5,6,7,8,0,1,2,3,4,5,6,7,8,0,1,2,3,4,5,6,7,8,0,1,2,3,4,5,6,7,8,0,1,2,3,4,5,6,7,8,0,1,2,3,4,5,6,7,8,0,1,2,3,4,5,6,7,8,0,1,2,3,4,5,6,7,8,0,1,2,3,4,5,6,7,8,0,1,2,3,4,5,6,7,8,0,1,2,3,4,5,6,7,8,0,1,2,3,4,5,6,7,8,0,1,2,3,4,5,6,7,8,0,1,2,3,4,5,6,7,8,0,1,2,3,4,5,6,7,8,0,1,2,3,4,5,6,7,8,0,1,2,3,4,5,6,7,8,0,1,2,3,4,5,6,7,8,0,1,2,3,4,5,6,7,8,0,1,2,3,4,5,6,7,8,0,1,2,3,4,5,6,7,8,0,1,2,3,4,5,6,7,8,0,1,2,3,4,5,6,7,8,0,1,2,3,4,5,6,7,8,0,1,2,3,4,5,6,7,8,0,1,2,3,4,5,6,7,8,0,1,2,3,4,5,6,7,8,0,1,2,3,4,5,6,7,8,0,1,2,3,4,5,6,7,8,0,1,2,3,4,5,6,7,8,0,1,2,3,4,5,6,7,8,0,1,2,3,4,5,6,7,8,0,1,2,3,4,5,6,7,8,0,1,2,3,4,5,6,7,8,0,1,2,3,4,5,6,7,8,0,1,2,3,4,5,6,7,8,0,1,2,3,4,5,6,7,8,0,1,2,3,4,5,6,7,8,0,1,2,3,4,5,6,7,8,0,1,2,3,4,5,6,7,8,0,1,2,3,4,5,6,7,8,0,1,2,3,4,5,6,7,8,0,1,2,3,4,5,6,7,8,0,1,2,3,4,5,6,7,8,0,1,2,3,4,5,6,7,8,0,1,2,3,4,5,6,7,8,0,1,2,3,4,5,6,7,8,0,1,2,3,4,5,6,7,8,0,1,2,3,4,5,6,7,8,0,1,2,3,4,5,6,7,8,0,1,2,3,4,5,6,7,8,0,1,2,3,4,5,6,7,8,0,1,2,3,4,5,6,7,8,0,1,2,3,4,5,6,7,8,0,1,2,3,4,5,6,7,8,0,1,2,3,4,5,6,7,8,0,1,2,3,4,5,6,7,8,0,1,2,3,4,5,6,7,8,0,1,2,3,4,5,6,7,8,0,1,2,3,4,5,6,7,8,0,1,2,3,4,5,6,7,8,0,1,2,3,4,5,6,7,8,0,1,2,3,4,5,6,7,8,0,1,2,3,4,5,6,7,8,0,1,2,3,4,5,6,7,8,0,1,2,3,4,5,6,7,8,0,1,2,3,4,5,6,7,8,0,1,2,3,4,5,6,7,8,0,1,2,3,4,5,6,7,8,0,1,2,3,4,5,6,7,8,0,1,2,3,4,5,6,7,8,0,1,2,3,4,5,6,7,8,0,1,2,3,4,5,6,7,8,0,1,2,3,4,5,6,7,8,0,1,2,3,4,5,6,7,8,0,1,2,3,4,5,6,7,8,0,1,2,3,4,5,6,7,8,0,1,2,3,4,5,6,7,8,0,1,2,3,4,5,6,7,8,0,1,2,3,4,5,6,7,8,0,1,2,3,4,5,6,7,8,0,1,2,3,4,5,6,7,8,0,1,2,3,4,5,6,7,8,0,1,2,3,4,5,6,7,8,0,1,2,3,4,5,6,7,8,0,1,2,3,4,5,6,7,8,0,1,2,3,4,5,6,7,8,0,1,2,3,4,5,6,7,8,0,1,2,3,4,5,6,7,8,0,1,2,3,4,5,6,7,8,0,1,2,3,4,5,6,7,8,0,1,2,3,4,5,6,7,8,0,1,2,3,4,5,6,7,8,0,1,2,3,4,5,6,7,8,0,1,2,3,4,5,6,7,8,0,1,2,3,4,5,6,7,8,0,1,2,3,4,5,6,7,8,0,1,2,3,4,5,6,7,8,0,1,2,3,4,5,6,7,8,0,1,2,3,4,5,6,7,8,0,1,2,3,4,5,6,7,8,0,1,2,3,4,5,6,7,8,0,1,2,3,4,5,6,7,8,0,1,2,3,4,5,6,7,8,0,1,2,3,4,5,6,7,8,0,1,2,3,4,5,6,7,8,0,1,2,3,4,5,6,7,8,0,1,2,3,4,5,6,7,8,0,1,2,3,4,5,6,7,8,0,1,2,3,4,5,6,7,8,0,1,2,3,4,5,6,7,8,0,1,2,3,4,5,6,7,8,0,1,2,3,4,5,6,7,8,0,1,2,3,4,5,6,7,8,0,1,2,3,4,5,6,7,8,0,1,2,3,4,5,6,7,8,0,1,2,3,4,5,6,7,8,0,1,2,3,4,5,6,7,8,0,1,2,3,4,5,6,7,8,0,1,2,3,4,5,6,7,8,0,1,2,3,4,5,6,7,8,0,1,2,3,4,5,6,7,8,0,1,2,3,4,5,6,7,8,0,1,2,3,4,5,6,7,8,0,1,2,3,4,5,6,7,8,0,1,2,3,4,5,6,7,8,0,1,2,3,4,5,6,7,8,0,1,2,3,4,5,6,7,8,0,1,2,3,4,5,6,7,8,0,1,2,3,4,5,6,7,8,0,1,2,3,4,5,6,7,8,0,1,2,3,4,5,6,7,8,0,1,2,3,4,5,6,7,8,0,1,2,3,4,5,6,7,8,0,1,2,3,4,5,6,7,8,0,1,2,3,4,5,6,7,8,0,1,2,3,4,5,6,7,8,0,1,2,3,4,5,6,7,8,0,1,2,3,4,5,6,7,8,0,1,2,3,4,5,6,7,8,0,1,2,3,4,5,6,7,8,0,1,2,3,4,5,6,7,8,0,1,2,3,4,5,6,7,8,0,1,2,3,4,5,6,7,8,0,1,2,3,4,5,6,7,8,0,1,2,3,4,5,6,7,8,0,1,2,3,4,5,6,7,8,0,1,2,3,4,5,6,7,8,0,1,2,3,4,5,6,7,8,0,1,2,3,4,5,6,7,8,0,1,2,3,4,5,6,7,8,0,1,2,3,4,5,6,7,8,0,1,2,3,4,5,6,7,8,0,1,2,3,4,5,6,7,8,0,1,2,3,4,5,6,7,8,0,1,2,3,4,5,6,7,8,0,1,2,3,4,5,6,7,8,0,1,2,3,4,5,6,7,8,0,1,2,3,4,5,6,7,8,0,1,2,3,4,5,6,7,8,0,1,2,3,4,5,6,7,8,0,1,2,3,4,5,6,7,8,0,1,2,3,4,5,6,7,8,0,1,2,3,4,5,6,7,8,0,1,2,3,4,5,6,7,8,0,1,2,3,4,5,6,7,8,0,1,2,3,4,5,6,7,8,0,1,2,3,4,5,6,7,8,0,1,2,3,4,5,6,7,8,0,1,2,3,4,5,6,7,8,0,1,2,3,4,5,6,7,8,0,1,2,3,4,5,6,7,8,0,1,2,3,4,5,6,7,8,0,1,2,3,4,5,6,7,8,0,1,2,3,4,5,6,7,8,0,1,2,3,4,5,6,7,8,0,1,2,3,4,5,6,7,8,0,1,2,3,4,5,6,7,8,0,1,2,3,4,5,6,7,8,0,1,2,3,4,5,6,7,8,0,1,2,3,4,5,6,7,8,0,1,2,3,4,5,6,7,8,0,1,2,3,4,5,6,7,8,0,1,2,3,4,5,6,7,8,0,1,2,3,4,5,6,7,8,0,1,2,3,4,5,6,7,8,0,1,2,3,4,5,6,7,8,0,1,2,3,4,5,6,7,8,0,1,2,3,4,5,6,7,8,0,1,2,3,4,5,6,7,8,0,1,2,3,4,5,6,7,8,0,1,2,3,4,5,6,7,8,0,1,2,3,4,5,6,7,8,0,1,2,3,4,5,6,7,8,0,1,2,3,4,5,6,7,8,0,1,2,3,4,5,6,7,8,0,1,2,3,4,5,6,7,8,0,1,2,3,4,5,6,7,8,0,1,2,3,4,5,6,7,8,0,1,2,3,4,5,6,7,8,0,1,2,3,4,5,6,7,8,0,1,2,3,4,5,6,7,8,0,1,2,3,4,5,6,7,8,0,1,2,3,4,5,6,7,8,0,1,2,3,4,5,6,7,8,0,1,2,3,4,5,6,7,8,0,1,2,3,4,5,6,7,8,0,1,2,3,4,5,6,7,8,0,1,2,3,4,5,6,7,8,0,1,2,3,4,5,6,7,8,0,1,2,3,4,5,6,7,8,0,1,2,3,4,5,6,7,8,0,1,2,3,4,5,6,7,8,0,1,2,3,4,5,6,7,8,0,1,2,3,4,5,6,7,8,0,1,2,3,4,5,6,7,8,0,1,2,3,4,5,6,7,8,0,1,2,3,4,5,6,7,8,0,1,2,3,4,5,6,7,8,0,1,2,3,4,5,6,7,8,0,1,2,3,4,5,6,7,8,0,1,2,3,4,5,6,7,8,0,1,2,3,4,5,6,7,8,0,1,2,3,4,5,6,7,8,0,1,2,3,4,5,6,7,8,0,1,2,3,4,5,6,7,8,0,1,2,3,4,5,6,7,8,0,1,2,3,4,5,6,7,8,0,1,2,3,4,5,6,7,8,0,1,2,3,4,5,6,7,8,0,1,2,3,4,5,6,7,8,0,1,2,3,4,5,6,7,8,0,1,2,3,4,5,6,7,8,0,1,2,3,4,5,6,7,8,0,1,2,3,4,5,6,7,8,0,1,2,3,4,5,6,7,8,0,1,2,3,4,5,6,7,8,0,1,2,3,4,5,6,7,8,0,1,2,3,4,5,6,7,8,0,1,2,3,4,5,6,7,8,0,1,2,3,4,5,6,7,8,0,1,2,3,4,5,6,7,8,0,1,2,3,4,5,6,7,8,0,1,2,3,4,5,6,7,8,0,1,2,3,4,5,6,7,8,0,1,2,3,4,5,6,7,8,0,1,2,3,4,5,6,7,8,0,1,2,3,4,5,6,7,8,0,1,2,3,4,5,6,7,8,0,1,2,3,4,5,6,7,8,0,1,2,3,4,5,6,7,8,0,1,2,3,4,5,6,7,8,0,1,2,3,4,5,6,7,8,0,1,2,3,4,5,6,7,8,0,1,2,3,4,5,6,7,8,0,1,2,3,4,5,6,7,8,0,1,2,3,4,5,6,7,8,0,1,2,3,4,5,6,7,8,0,1,2,3,4,5,6,7,8,0,1,2,3,4,5,6,7,8,0,1,2,3,4,5,6,7,8,0,1,2,3,4,5,6,7,8,0,1,2,3,4,5,6,7,8,0,1,2,3,4,5,6,7,8,0,1,2,3,4,5,6,7,8,0,1,2,3,4,5,6,7,8,0,1,2,3,4,5,6,7,8,0,1,2,3,4,5,6,7,8,0,1,2,3,4,5,6,7,8,0,1,2,3,4,5,6,7,8,0,1,2,3,4,5,6,7,8,0,1,2,3,4,5,6,7,8,0,1,2,3,4,5,6,7,8,0,1,2,3,4,5,6,7,8,0,1,2,3,4,5,6,7,8,0,1,2,3,4,5,6,7,8,0,1,2,3,4,5,6,7,8,0,1,2,3,4,5,6,7,8,0,1,2,3,4,5,6,7,8,0,1,2,3,4,5,6,7,8,0,1,2,3,4,5,6,7,8,0,1,2,3,4,5,6,7,8,0,1,2,3,4,5,6,7,8,0,1,2,3,4,5,6,7,8,0,1,2,3,4,5,6,7,8,0,1,2,3,4,5,6,7,8,0,1,2,3,4,5,6,7,8,0,1,2,3,4,5,6,7,8,0,1,2,3,4,5,6,7,8,0,1,2,3,4,5,6,7,8,0,1,2,3,4,5,6,7,8,0,1,2,3,4,5,6,7,8,0,1,2,3,4,5,6,7,8,0,1,2,3,4,5,6,7,8,0,1,2,3,4,5,6,7,8,0,1,2,3,4,5,6,7,8,0,1,2,3,4,5,6,7,8,0,1,2,3,4,5,6,7,8,0,1,2,3,4,5,6,7,8,0,1,2,3,4,5,6,7,8,0,1,2,3,4,5,6,7,8,0,1,2,3,4,5,6,7,8,0,1,2,3,4,5,6,7,8,0,1,2,3,4,5,6,7,8,0,1,2,3,4,5,6,7,8,0,1,2,3,4,5,6,7,8,0,1,2,3,4,5,6,7,8,0,1,2,3,4,5,6,7,8,0,1,2,3,4,5,6,7,8,0,1,2,3,4,5,6,7,8,0,1,2,3,4,5,6,7,8,0,1,2,3,4,5,6,7,8,0,1,2,3,4,5,6,7,8,0,1,2,3,4,5,6,7,8,0,1,2,3,4,5,6,7,8,0,1,2,3,4,5,6,7,8,0,1,2,3,4,5,6,7,8,0,1,2,3,4,5,6,7,8,0,1,2,3,4,5,6,7,8,0,1,2,3,4,5,6,7,8,0,1,2,3,4,5,6,7,8,0,1,2,3,4,5,6,7,8,0,1,2,3,4,5,6,7,8,0,1,2,3,4,5,6,7,8,0,1,2,3,4,5,6,7,8,0,1,2,3,4,5,6,7,8,0,1,2,3,4,5,6,7,8,0,1,2,3,4,5,6,7,8,0,1,2,3,4,5,6,7,8,0,1,2,3,4,5,6,7,8,0,1,2,3,4,5,6,7,8,0,1,2,3,4,5,6,7,8,0,1,2,3,4,5,6,7,8,0,1,2,3,4,5,6,7,8,0,1,2,3,4,5,6,7,8,0,1,2,3,4,5,6,7,8,0,1,2,3,4,5,6,7,8,0,1,2,3,4,5,6,7,8,0,1,2,3,4,5,6,7,8,0,1,2,3,4,5,6,7,8,0,1,2,3,4,5,6,7,8,0,1,2,3,4,5,6,7,8,0,1,2,3,4,5,6,7,8,0,1,2,3,4,5,6,7,8,0,1,2,3,4,5,6,7,8,0,1,2,3,4,5,6,7,8,0,1,2,3,4,5,6,7,8,0,1,2,3,4,5,6,7,8,0,1,2,3,4,5,6,7,8,0,1,2,3,4,5,6,7,8,0,1,2,3,4,5,6,7,8,0,1,2,3,4,5,6,7,8,0,1,2,3,4,5,6,7,8,0,1,2,3,4,5,6,7,8,0,1,2,3,4,5,6,7,8,0,1,2,3,4,5,6,7,8,0,1,2,3,4,5,6,7,8,0,1,2,3,4,5,6,7,8,0,1,2,3,4,5,6,7,8,0,1,2,3,4,5,6,7,8,0,1,2,3,4,5,6,7,8,0,1,2,3,4,5,6,7,8,0,1,2,3,4,5,6,7,8,0,1,2,3,4,5,6,7,8,0,1,2,3,4,5,6,7,8,0,1,2,3,4,5,6,7,8,0,1,2,3,4,5,6,7,8,0,1,2,3,4,5,6,7,8,0,1,2,3,4,5,6,7,8,0,1,2,3,4,5,6,7,8,0,1,2,3,4,5,6,7,8,0,1,2,3,4,5,6,7,8,0,1,2,3,4,5,6,7,8,0,1,2,3,4,5,6,7,8,0,1,2,3,4,5,6,7,8,0,1,2,3,4,5,6,7,8,0,1,2,3,4,5,6,7,8,0,1,2,3,4,5,6,7,8,0,1,2,3,4,5,6,7,8,0,1,2,3,4,5,6,7,8,0,1,2,3,4,5,6,7,8,0,1,2,3,4,5,6,7,8,0,1,2,3,4,5,6,7,8,0,1,2,3,4,5,6,7,8,0,1,2,3,4,5,6,7,8,0,1,2,3,4,5,6,7,8,0,1,2,3,4,5,6,7,8,0,1,2,3,4,5,6,7,8,0,1,2,3,4,5,6,7,8,0,1,2,3,4,5,6,7,8,0,1,2,3,4,5,6,7,8,0,1,2,3,4,5,6,7,8,0,1,2,3,4,5,6,7,8,0,1,2,3,4,5,6,7,8,0,1,2,3,4,5,6,7,8,0,1,2,3,4,5,6,7,8,0,1,2,3,4,5,6,7,8,0,1,2,3,4,5,6,7,8,0,1,2,3,4,5,6,7,8,0,1,2,3,4,5,6,7,8,0,1,2,3,4,5,6,7,8,0,1,2,3,4,5,6,7,8,0,1,2,3,4,5,6,7,8,0,1,2,3,4,5,6,7,8,0,1,2,3,4,5,6,7,8,0,1,2,3,4,5,6,7,8,0,1,2,3,4,5,6,7,8,0,1,2,3,4,5,6,7,8,0,1,2,3,4,5,6,7,8,0,1,2,3,4,5,6,7,8,0,1,2,3,4,5,6,7,8,0,1,2,3,4,5,6,7,8,0,1,2,3,4,5,6,7,8,0,1,2,3,4,5,6,7,8,0,1,2,3,4,5,6,7,8,0,1,2,3,4,5,6,7,8,0,1,2,3,4,5,6,7,8,0,1,2,3,4,5,6,7,8,0,1,2,3,4,5,6,7,8,0,1,2,3,4,5,6,7,8,0,1,2,3,4,5,6,7,8,0,1,2,3,4,5,6,7,8,0,1,2,3,4,5,6,7,8,0,1,2,3,4,5,6,7,8,0,1,2,3,4,5,6,7,8,0,1,2,3,4,5,6,7,8,0,1,2,3,4,5,6,7,8,0,1,2,3,4,5,6,7,8,0,1,2,3,4,5,6,7,8,0,1,2,3,4,5,6,7,8,0,1,2,3,4,5,6,7,8,0,1,2,3,4,5,6,7,8,0,1,2,3,4,5,6,7,8,0,1,2,3,4,5,6,7,8,0,1,2,3,4,5,6,7,8,0,1,2,3,4,5,6,7,8,0,1,2,3,4,5,6,7,8,0,1,2,3,4,5,6,7,8,0,1,2,3,4,5,6,7,8,0,1,2,3,4,5,6,7,8,0,1,2,3,4,5,6,7,8,0,1,2,3,4,5,6,7,8,0,1,2,3,4,5,6,7,8,0,1,2,3,4,5,6,7,8,0,1,2,3,4,5,6,7,8,0,1,2,3,4,5,6,7,8,0,1,2,3,4,5,6,7,8,0,1,2,3,4,5,6,7,8,0,1,2,3,4,5,6,7,8,0,1,2,3,4,5,6,7,8,0,1,2,3,4,5,6,7,8,0,1,2,3,4,5,6,7,8,0,1,2,3,4,5,6,7,8,0,1,2,3,4,5,6,7,8,0,1,2,3,4,5,6,7,8,0,1,2,3,4,5,6,7,8,0,1,2,3,4,5,6,7,8,0,1,2,3,4,5,6,7,8,0,1,2,3,4,5,6,7,8,0,1,2,3,4,5,6,7,8,0,1,2,3,4,5,6,7,8,0,1,2,3,4,5,6,7,8,0,1,2,3,4,5,6,7,8,0,1,2,3,4,5,6,7,8,0,1,2,3,4,5,6,7,8,0,1,2,3,4,5,6,7,8,0,1,2,3,4,5,6,7,8,0,1,2,3,4,5,6,7,8,0,1,2,3,4,5,6,7,8,0,1,2,3,4,5,6,7,8,0,1,2,3,4,5,6,7,8,0,1,2,3,4,5,6,7,8,0,1,2,3,4,5,6,7,8,0,1,2,3,4,5,6,7,8,0,1,2,3,4,5,6,7,8,0,1,2,3,4,5,6,7,8,0,1,2,3,4,5,6,7,8,0,1,2,3,4,5,6,7,8,0,1,2,3,4,5,6,7,8,0,1,2,3,4,5,6,7,8,0,1,2,3,4,5,6,7,8,0,1,2,3,4,5,6,7,8,0,1,2,3,4,5,6,7,8,0,1,2,3,4,5,6,7,8,0,1,2,3,4,5,6,7,8,0,1,2,3,4,5,6,7,8,0,1,2,3,4,5,6,7,8],"trees":[{"base_weights":[7.2046136E-4,-4.312773E-1,5.679116E-1,-0E0,-1.420916E-2,1.058311E0,4.3117717E-2,4.1444868E-2,2.9680666E-3,1.6944494E-2,-6.882594E-3],"categories":[],"categories_nodes":[],"categories_segments":[],"categories_sizes":[],"default_left":[0,0,0,0,0,0,0,0,0,0,0],"id":0,"left_children":[1,3,5,-1,-1,7,9,-1,-1,-1,-1],"loss_changes":[8.035395E0,2.08107E-1,3.2856402E0,0E0,0E0,1.4734349E0,1.6876342E0,0E0,0E0,0E0,0E0],"parents":[2147483647,0,0,1,1,2,2,5,5,6,6],"right_children":[2,4,6,-1,-1,8,10,-1,-1,-1,-1],"split_conditions":[5.9733E-1,1.2745E-1,5.9501E-1,-0E0,-1.420916E-2,6.0503E-1,5.8649E-1,4.1444868E-2,2.9680666E-3,1.6944494E-2,-6.882594E-3],"split_indices":[0,1,10,0,0,8,1,0,0,0,0],"split_type":[0,0,0,0,0,0,0,0,0,0,0],"sum_hessian":[2.8627655E1,1.6222338E1,1.2405317E1,2.1861117E0,1.4036225E1,5.0662274E0,7.3390894E0,2.8974657E0,2.1687617E0,2.1600866E0,5.179003E0],"tree_param":{"num_deleted":"0","num_feature":"18","num_nodes":"11","size_leaf_vector":"1"}},{"base_weights":[-1.089072E-1,-2.8428742E-1,2.4786998E-2,-1.3919803E-2,-4.4106957E-2,-1.0014931E-2,1.3562793E-2],"categories":[],"categories_nodes":[],"categories_segments":[],"categories_sizes":[],"default_left":[0,0,0,0,0,0,0],"id":1,"left_children":[1,3,-1,-1,5,-1,-1],"loss_changes":[5.205083E0,9.679556E-1,0E0,0E0,2.3422801E0,0E0,0E0],"parents":[2147483647,0,0,1,1,4,4],"right_children":[2,4,-1,-1,6,-1,-1],"split_conditions":[9.251E-1,4.6846E-1,2.4786998E-2,-1.3919803E-2,3.8423112E-1,-1.0014931E-2,1.3562793E-2],"split_indices":[9,4,0,0,17,0,0],"split_type":[0,0,0,0,0,0,0],"sum_hessian":[2.7864256E1,2.4906065E1,2.9581916E0,1.2466044E1,1.244002E1,8.649023E0,3.7909963E0],"tree_param":{"num_deleted":"0","num_feature":"18","num_nodes":"7","size_leaf_vector":"1"}},{"base_weights":[8.306027E-2,-4.2574218E-1,8.446399E-1,-0E0,-1.4139612E-2,1.2996151E0,-8.237792E-3,5.3778227E-2,1.029334E-3],"categories":[],"categories_nodes":[],"categories_segments":[],"categories_sizes":[],"default_left":[0,0,0,0,0,0,0,0,0],"id":2,"left_children":[1,3,5,-1,-1,7,-1,-1,-1],"loss_changes":[1.1647285E1,2.4432087E-1,7.1684446E0,0E0,0E0,5.0192146E0,0E0,0E0,0E0],"parents":[2147483647,0,0,1,1,2,2,5,5],"right_children":[2,4,6,-1,-1,8,-1,-1,-1],"split_conditions":[6.0045E-1,2.9303E-1,2.3554163E-1,-0E0,-1.4139612E-2,3.7328E-1,-8.237792E-3,5.3778227E-2,1.029334E-3],"split_indices":[9,3,16,0,0,7,0,0,0],"split_type":[0,0,0,0,0,0,0,0,0],"sum_hessian":[2.587767E1,1.5805939E1,1.0071732E1,2.1774373E0,1.3628501E1,7.122215E0,2.9495165E0,4.3548746E0,2.7673404E0],"tree_param":{"num_deleted":"0","num_feature":"18","num_nodes":"9","size_leaf_vector":"1"}},{"base_weights":[-0E0,4.4111986E-2,-2.8544867E-1,3.5346416E-1,-1.4886767E-2,3.2779768E-2,-8.89515E-3],"categories":[],"categories_nodes":[],"categories_segments":[],"categories_sizes":[],"default_left":[0,0,0,0,0,0,0],"id":3,"left_children":[1,-1,3,5,-1,-1,-1],"loss_changes":[1.38217945E1,0E0,4.0321994E0,4.498534E0,0E0,0E0,0E0],"parents":[2147483647,0,0,2,2,3,3],"right_children":[2,-1,4,6,-1,-1,-1],"split_conditions":[1.4684E-1,4.4111986E-2,4.348E-2,3.1214E-1,-1.4886767E-2,3.2779768E-2,-8.89515E-3],"split_indices":[6,0,15,12,0,0,0],"split_type":[0,0,0,0,0,0,0],"sum_hessian":[2.8393435E1,3.374594E0,2.501884E1,5.517331E0,1.9501509E1,2.160087E0,3.3572438E0],"tree_param":{"num_deleted":"0","num_feature":"18","num_nodes":"7","size_leaf_vector":"1"}},{"base_weights":[-2.2981912E-2,-3.3369896E-1,6.4632493E-1,-1.3381579E-2,6.3705263E-3,-1.4126975E-2,4.8003208E-2,1.0754236E-2,-9.676178E-3],"categories":[],"categories_nodes":[],"categories_segments":[],"categories_sizes":[],"default_left":[0,0,0,0,0,0,0,0,0],"id":4,"left_children":[1,3,5,-1,-1,7,-1,-1,-1],"loss_changes":[7.116583E0,1.725043E0,7.2673645E0,0E0,0E0,1.1540992E0,0E0,0E0,0E0],"parents":[2147483647,0,0,1,1,2,2,5,5],"right_children":[2,4,6,-1,-1,8,-1,-1,-1],"split_conditions":[7.3865E-1,8.5306E-1,7.7601E-1,-1.3381579E-2,6.3705263E-3,4.6059E-1,4.8003208E-2,1.0754236E-2,-9.676178E-3],"split_indices":[1,14,14,0,0,7,0,0,0],"split_type":[0,0,0,0,0,0,0,0,0],"sum_hessian":[3.0596897E1,2.1887148E1,8.709749E0,1.8911606E1,2.9755416E0,6.124584E0,2.5851645E0,2.1861122E0,3.938472E0],"tree_param":{"num_deleted":"0","num_feature":"18","num_nodes":"9","size_leaf_vector":"1"}},{"base_weights":[-1.334591E-1,-1.5232656E-2,1.1537403E0,1.8826586E-3,4.8774384E-2],"categories":[],"categories_nodes":[],"categories_segments":[],"categories_sizes":[],"default_left":[0,0,0,0,0],"id":5,"left_children":[1,-1,3,-1,-1],"loss_changes":[1.618963E1,0E0,3.1743832E0,0E0,0E0],"parents":[2147483647,0,0,2,2],"right_children":[2,-1,4,-1,-1],"split_conditions":[8.0602E-1,-1.5232656E-2,4.2424E-1,1.8826586E-3,4.8774384E-2],"split_indices":[11,0,14,0,0],"split_type":[0,0,0,0,0],"sum_hessian":[2.957324E1,2.4029884E1,5.543356E0,2.5504644E0,2.9928918E0],"tree_param":{"num_deleted":"0","num_feature":"18","num_nodes":"5","size_leaf_vector":"1"}},{"base_weights":[-7.168639E-2,5.594388E-1,-1.4701756E-2,1.1779209E0,-1.0344018E-2,-7.94025E-3,6.1960373E-2],"categories":[],"categories_nodes":[],"categories_segments":[],"categories_sizes":[],"default_left":[0,0,0,0,0,0,0],"id":6,"left_children":[1,3,-1,5,-1,-1,-1],"loss_changes":[8.571065E0,8.216099E0,0E0,1.219003E1,0E0,0E0,0E0],"parents":[2147483647,0,0,1,1,3,3],"right_children":[2,4,-1,6,-1,-1,-1],"split_conditions":[3.9747E-1,4.6918E-1,-1.4701756E-2,2.2979E-1,-1.0344018E-2,-7.94025E-3,6.1960373E-2],"split_indices":[13,10,0,9,0,0,0],"split_type":[0,0,0,0,0,0,0],"sum_hessian":[2.8462828E1,1.0791759E1,1.767107E1,6.2460337E0,4.5457244E0,2.78469E0,3.461344E0],"tree_param":{"num_deleted":"0","num_feature":"18","num_nodes":"7","size_leaf_vector":"1"}},{"base_weights":[-0E0,-1.1303843E-2,5.219204E-1,-4.0862035E-2,3.491645E-2,-9.70759E-3,8.397446E-3],"categories":[],"categories_nodes":[],"categories_segments":[],"categories_sizes":[],"default_left":[0,0,0,0,0,0,0],"id":7,"left_children":[1,-1,3,5,-1,-1,-1],"loss_changes":[6.139661E0,0E0,5.0816956E0,9.6884894E-1,0E0,0E0,0E0],"parents":[2147483647,0,0,2,2,3,3],"right_children":[2,-1,4,6,-1,-1,-1],"split_conditions":[6.1294E-1,-1.1303843E-2,7.2894E-1,6.0098E-1,3.491645E-2,-9.70759E-3,8.397446E-3],"split_indices":[2,0,5,7,0,0,0],"split_type":[0,0,0,0,0,0,0],"sum_hessian":[2.742183E1,1.6551992E1,1.0869836E1,6.5409865E0,4.3288493E0,3.964497E0,2.5764894E0],"tree_param":{"num_deleted":"0","num_feature":"18","num_nodes":"7","size_leaf_vector":"1"}},{"base_weights":[1.1704096E-1,-4.471058E-1,1.2731853E0,-1.4616085E-2,-0E0,-0E0,1.6431733E0,7.426354E-2,-8.820057E-4],"categories":[],"categories_nodes":[],"categories_segments":[],"categories_sizes":[],"default_left":[0,0,0,0,0,0,0,0,0],"id":8,"left_children":[1,3,5,-1,-1,-1,7,-1,-1],"loss_changes":[2.0598902E1,2.7371073E-1,5.2462597E0,0E0,0E0,0E0,1.2237474E1,0E0,0E0],"parents":[2147483647,0,0,1,1,2,2,6,6],"right_children":[2,4,6,-1,-1,-1,8,-1,-1],"split_conditions":[7.135E-1,6.3541E-1,5.4727E-1,-1.4616085E-2,-0E0,-0E0,2.858E-1,7.426354E-2,-8.820057E-4],"split_indices":[13,13,14,0,0,0,5,0,0],"split_type":[0,0,0,0,0,0,0,0,0],"sum_hessian":[2.745653E1,1.9102457E1,8.354072E0,1.692502E1,2.1774373E0,2.1947873E0,6.1592846E0,3.59147E0,2.5678144E0],"tree_param":{"num_deleted":"0","num_feature":"18","num_nodes":"9","size_leaf_vector":"1"}},{"base_weights":[-8.396232E-3,-3.778744E-1,7.718108E-1,-1.4778757E-2,5.699423E-3,-9.276763E-3,1.4484583E0,5.8660496E-2,1.1423365E-2],"categories":[],"categories_nodes":[],"categories_segments":[],"categories_sizes":[],"default_left":[0,0,0,0,0,0,0,0,0],"id":9,"left_children":[1,3,5,-1,-1,-1,7,-1,-1],"loss_changes":[9.751256E0,1.8069601E0,9.10021E0,0E0,0E0,0E0,1.6706867E0,0E0,0E0],"parents":[2147483647,0,0,1,1,2,2,6,6],"right_children":[2,4,6,-1,-1,-1,8,-1,-1],"split_conditions":[6.655E-1,8.4313E-1,6.1569E-1,-1.4778757E-2,5.699423E-3,-9.276763E-3,5.2708E-1,5.8660496E-2,1.1423365E-2],"split_indices":[0,6,6,0,0,0,10,0,0],"split_type":[0,0,0,0,0,0,0,0,0],"sum_hessian":[3.0213404E1,2.1464464E1,8.74894E0,1.851605E1,2.9484134E0,3.6154356E0,5.133505E0,2.1628728E0,2.970632E0],"tree_param":{"num_deleted":"0","num_feature":"18","num_nodes":"9","size_leaf_vector":"1"}},{"base_weights":[8.3529264E-2,-2.5506127E-1,9.083221E-1,1.0816963E-2,-3.614012E-1,-8.729718E-5,1.2215989E0,-1.4444476E-2,8.651241E-4,4.346894E-3,4.4836868E-2],"categories":[],"categories_nodes":[],"categories_segments":[],"categories_sizes":[],"default_left":[0,0,0,0,0,0,0,0,0,0,0],"id":10,"left_children":[1,3,5,-1,7,-1,9,-1,-1,-1,-1],"loss_changes":[9.751337E0,1.8572524E0,3.2763891E0,0E0,1.2042236E0,0E0,1.3730793E0,0E0,0E0,0E0,0E0],"parents":[2147483647,0,0,1,1,2,2,4,4,6,6],"right_children":[2,4,6,-1,8,-1,10,-1,-1,-1,-1],"split_conditions":[2.926144E-1,3.9428174E-2,2.3554163E-1,1.0816963E-2,6.895E-1,-8.729718E-5,3.0356E-1,-1.4444476E-2,8.651241E-4,4.346894E-3,4.4836868E-2],"split_indices":[17,16,16,0,2,0,3,0,0,0,0],"split_type":[0,0,0,0,0,0,0,0,0,0,0],"sum_hessian":[3.0556667E1,2.238504E1,8.171627E0,2.1773481E0,2.0207691E1,2.3525472E0,5.81908E0,1.5682974E1,4.5247183E0,2.0183632E0,3.8007169E0],"tree_param":{"num_deleted":"0","num_feature":"18","num_nodes":"11","size_leaf_vector":"1"}},{"base_weights":[3.9359074E-2,9.889509E-1,-4.0264115E-1,-8.213772E-3,4.824605E-2,-1.4514421E-2,-0E0],"categories":[],"categories_nodes":[],"categories_segments":[],"categories_sizes":[],"default_left":[0,0,0,0,0,0,0],"id":11,"left_children":[1,3,5,-1,-1,-1,-1],"loss_changes":[1.3517061E1,9.325301E0,7.60535E-1,0E0,0E0,0E0,0E0],"parents":[2147483647,0,0,1,1,2,2],"right_children":[2,4,6,-1,-1,-1,-1],"split_conditions":[3.6989E-1,2.6072624E-1,5.056068E-1,-8.213772E-3,4.824605E-2,-1.4514421E-2,-0E0],"split_indices":[7,15,15,0,0,0,0],"split_type":[0,0,0,0,0,0,0],"sum_hessian":[2.7888466E1,8.287491E0,1.9600975E1,2.9346275E0,5.352864E0,1.620982E1,3.3911548E0],"tree_param":{"num_deleted":"0","num_feature":"18","num_nodes":"7","size_leaf_vector":"1"}},{"base_weights":[-2.4803875E-3,1.3464067E0,-4.5972338E-1,-8.220656E-3,7.4867055E-2,-1.4898037E-2,-0E0],"categories":[],"categories_nodes":[],"categories_segments":[],"categories_sizes":[],"default_left":[0,0,0,0,0,0,0],"id":12,"left_children":[1,3,5,-1,-1,-1,-1],"loss_changes":[1.9229006E1,1.6627398E1,3.4366655E-1,0E0,0E0,0E0,0E0],"parents":[2147483647,0,0,1,1,2,2],"right_children":[2,4,6,-1,-1,-1,-1],"split_conditions":[3.6157E-1,8.6313E-1,8.8686E-1,-8.220656E-3,7.4867055E-2,-1.4898037E-2,-0E0],"split_indices":[0,7,7,0,0,0,0],"split_type":[0,0,0,0,0,0,0],"sum_hessian":[2.7601126E1,5.8368406E0,2.1764284E1,2.9454734E0,2.8913674E0,1.9759388E1,2.0048962E0],"tree_param":{"num_deleted":"0","num_feature":"18","num_nodes":"7","size_leaf_vector":"1"}},{"base_weights":[-1.0776378E-1,4.2223194E-1,-1.45753715E-2,-1.0294901E-2,9.3590146E-1,-0E0,3.8578562E-2],"categories":[],"categories_nodes":[],"categories_segments":[],"categories_sizes":[],"default_left":[0,0,0,0,0,0,0],"id":13,"left_children":[1,3,-1,-1,5,-1,-1],"loss_changes":[6.3992777E0,5.987853E0,0E0,0E0,3.1085706E0,0E0,0E0],"parents":[2147483647,0,0,1,1,4,4],"right_children":[2,4,-1,-1,6,-1,-1],"split_conditions":[3.7707E-1,5.2708E-1,-1.45753715E-2,-1.0294901E-2,5.4264E-1,-0E0,3.8578562E-2],"split_indices":[4,10,0,0,1,0,0],"split_type":[0,0,0,0,0,0,0],"sum_hessian":[2.7792694E1,1.1143998E1,1.6648697E1,4.5074687E0,6.63653E0,2.1821654E0,4.4543643E0],"tree_param":{"num_deleted":"0","num_feature":"18","num_nodes":"7","size_leaf_vector":"1"}},{"base_weights":[5.7863265E-2,-1.4489846E-2,8.233344E-1,-1.0151748E-2,1.525489E0,9.397651E-3,5.533523E-2],"categories":[],"categories_nodes":[],"categories_segments":[],"categories_sizes":[],"default_left":[0,0,0,0,0,0,0],"id":14,"left_children":[1,-1,3,-1,5,-1,-1],"loss_changes":[1.2909572E1,0E0,1.1977928E1,0E0,1.5288544E0,0E0,0E0],"parents":[2147483647,0,0,2,2,4,4],"right_children":[2,-1,4,-1,6,-1,-1],"split_conditions":[6.1662E-1,-1.4489846E-2,5.6197E-1,-1.0151748E-2,6.4388E-1,9.397651E-3,5.533523E-2],"split_indices":[10,0,6,0,0,0,0],"split_type":[0,0,0,0,0,0,0],"sum_hessian":[2.701403E1,1.603226E1,1.0981769E1,4.366388E0,6.6153812E0,2.3999815E0,4.2153997E0],"tree_param":{"num_deleted":"0","num_feature":"18","num_nodes":"7","size_leaf_vector":"1"}},{"base_weights":[-1.8390026E-2,6.5786165E-1,-1.4571786E-2,1.3913798E0,-1.0491131E-2,-1.2767637E-3,6.5274954E-2],"categories":[],"categories_nodes":[],"categories_segments":[],"categories_sizes":[],"default_left":[0,0,0,0,0,0,0],"id":15,"left_children":[1,3,-1,5,-1,-1,-1],"loss_changes":[9.832046E0,1.0554346E1,0E0,9.634534E0,0E0,0E0,0E0],"parents":[2147483647,0,0,1,1,3,3],"right_children":[2,4,-1,6,-1,-1,-1],"split_conditions":[4.3912E-1,3.6629E-1,-1.4571786E-2,3.301E-1,-1.0491131E-2,-1.2767637E-3,6.5274954E-2],"split_indices":[10,13,0,9,0,0,0],"split_type":[0,0,0,0,0,0,0],"sum_hessian":[2.7251663E1,1.0541068E1,1.6710594E1,5.831536E0,4.7095327E0,2.5957315E0,3.2358043E0],"tree_param":{"num_deleted":"0","num_feature":"18","num_nodes":"7","size_leaf_vector":"1"}},{"base_weights":[-1.1594106E-2,-4.1007945E-1,4.168635E-1,-1.3778168E-2,-0E0,-1.0244437E-2,8.610119E-1,4.459683E-2,-0E0],"categories":[],"categories_nodes":[],"categories_segments":[],"categories_sizes":[],"default_left":[0,0,0,0,0,0,0,0,0],"id":16,"left_children":[1,3,5,-1,-1,-1,7,-1,-1],"loss_changes":[5.163295E0,2.2865486E-1,5.5410614E0,0E0,0E0,0E0,5.60282E0,0E0,0E0],"parents":[2147483647,0,0,1,1,2,2,6,6],"right_children":[2,4,6,-1,-1,-1,8,-1,-1],"split_conditions":[5.535E-1,4.2516E-1,3.7237E-1,-1.3778168E-2,-0E0,-1.0244437E-2,5.1517E-1,4.459683E-2,-0E0],"split_indices":[5,5,12,0,0,0,12,0,0],"split_type":[0,0,0,0,0,0,0,0,0],"sum_hessian":[2.6251158E1,1.4008542E1,1.2242617E1,1.18468685E1,2.1616733E0,4.443163E0,7.7994537E0,3.8227854E0,3.9766684E0],"tree_param":{"num_deleted":"0","num_feature":"18","num_nodes":"9","size_leaf_vector":"1"}},{"base_weights":[-4.349557E-2,-1.4231768E-2,4.4857302E-1,-1.117527E-2,1.1222235E0,4.7027547E-2,-0E0],"categories":[],"categories_nodes":[],"categories_segments":[],"categories_sizes":[],"default_left":[0,0,0,0,0,0,0],"id":17,"left_children":[1,-1,3,-1,5,-1,-1],"loss_changes":[6.3793464E0,0E0,8.691411E0,0E0,4.5001497E0,0E0,0E0],"parents":[2147483647,0,0,2,2,4,4],"right_children":[2,-1,4,-1,6,-1,-1],"split_conditions":[5.4208E-1,-1.4231768E-2,6.5029E-1,-1.117527E-2,8.7553E-1,4.7027547E-2,-0E0],"split_indices":[14,0,13,0,14,0,0],"split_type":[0,0,0,0,0,0,0],"sum_hessian":[2.6043112E1,1.4247935E1,1.17951765E1,5.5181174E0,6.277059E0,4.073342E0,2.2037175E0],"tree_param":{"num_deleted":"0","num_feature":"18","num_nodes":"7","size_leaf_vector":"1"}},{"base_weights":[-4.051871E-2,-4.2555675E-1,4.6207002E-1,-0E0,-1.4080326E-2,-8.343941E-3,1.3028499E0,5.40687E-2,2.7007547E-3],"categories":[],"categories_nodes":[],"categories_segments":[],"categories_sizes":[],"default_left":[0,0,0,0,0,0,0,0,0],"id":18,"left_children":[1,3,5,-1,-1,-1,7,-1,-1],"loss_changes":[5.9257526E0,2.2195053E-1,9.151899E0,0E0,0E0,0E0,3.1359873E0,0E0,0E0],"parents":[2147483647,0,0,1,1,2,2,6,6],"right_children":[2,4,6,-1,-1,-1,8,-1,-1],"split_conditions":[5.9733E-1,1.2757E-1,7.5181E-1,-0E0,-1.4080326E-2,-8.343941E-3,1.9732466E-1,5.40687E-2,2.7007547E-3],"split_indices":[0,13,6,0,0,0,15,0,0],"split_type":[0,0,0,0,0,0,0,0,0],"sum_hessian":[2.6645893E1,1.5598887E1,1.1047007E1,2.1230292E0,1.3475858E1,6.3969116E0,4.6500945E0,2.430009E0,2.2200856E0],"tree_param":{"num_deleted":"0","num_feature":"18","num_nodes":"9","size_leaf_vector":"1"}},{"base_weights":[3.3593327E-2,3.287857E-1,-1.3297524E-2,-2.1631415E-1,1.0475067E0,7.401587E-3,-1.2629673E-2,4.0620394E-2,-0E0],"categories":[],"categories_nodes":[],"categories_segments":[],"categories_sizes":[],"default_left":[0,0,0,0,0,0,0,0,0],"id":19,"left_children":[1,3,-1,5,7,-1,-1,-1,-1],"loss_changes":[4.507282E0,8.610945E0,0E0,1.4825573E0,3.1503887E0,0E0,0E0,0E0,0E0],"parents":[2147483647,0,0,1,1,3,3,4,4],"right_children":[2,4,-1,6,8,-1,-1,-1,-1],"split_conditions":[7.1102E-1,2.479388E-1,-1.3297524E-2,2.2938E-1,4.266732E-1,7.401587E-3,-1.2629673E-2,4.0620394E-2,-0E0],"split_indices":[3,17,0,5,16,0,0,0,0],"split_type":[0,0,0,0,0,0,0,0,0],"sum_hessian":[2.819416E1,1.8186106E1,1.0008055E1,1.0899923E1,7.2861824E0,2.7659547E0,8.133968E0,5.2762036E0,2.0099785E0],"tree_param":{"num_deleted":"0","num_feature":"18","num_nodes":"9","size_leaf_vector":"1"}},{"base_weights":[-0E0,-1.4456082E-2,5.845029E-1,1.3925667E0,-1.15964385E-2,2.6212637E-3,5.4271422E-2],"categories":[],"categories_nodes":[],"categories_segments":[],"categories_sizes":[],"default_left":[0,0,0,0,0,0,0],"id":20,"left_children":[1,-1,3,5,-1,-1,-1],"loss_changes":[9.2085285E0,0E0,1.2979632E1,3.8293705E0,0E0,0E0,0E0],"parents":[2147483647,0,0,2,2,3,3],"right_children":[2,-1,4,6,-1,-1,-1],"split_conditions":[5.6617E-1,-1.4456082E-2,4.3373E-1,5.495E-1,-1.15964385E-2,2.6212637E-3,5.4271422E-2],"split_indices":[9,0,7,10,0,0,0],"split_type":[0,0,0,0,0,0,0],"sum_hessian":[2.8689299E1,1.5904452E1,1.2784846E1,6.6728153E0,6.1120305E0,2.373746E0,4.2990694E0],"tree_param":{"num_deleted":"0","num_feature":"18","num_nodes":"7","size_leaf_vector":"1"}},{"base_weights":[-0E0,-1.49675105E-2,5.6827236E-2],"categories":[],"categories_nodes":[],"categories_segments":[],"categories_sizes":[],"default_left":[0,0,0],"id":21,"left_children":[1,-1,-1],"loss_changes":[2.7486256E1,0E0,0E0],"parents":[2147483647,0,0],"right_children":[2,-1,-1],"split_conditions":[8.7625E-1,-1.49675105E-2,5.6827236E-2],"split_indices":[7,0,0],"split_type":[0,0,0],"sum_hessian":[2.4848726E1,2.0767902E1,4.080825E0],"tree_param":{"num_deleted":"0","num_feature":"18","num_nodes":"3","size_leaf_vector":"1"}},{"base_weights":[2.1443423E-2,-2.928441E-1,9.163346E-1,-1.418099E-2,2.142863E-2,-3.9431563E-4,3.9757535E-2,-9.822589E-3,1.2565732E-2],"categories":[],"categories_nodes":[],"categories_segments":[],"categories_sizes":[],"default_left":[0,0,0,0,0,0,0,0,0],"id":22,"left_children":[1,3,5,-1,7,-1,-1,-1,-1],"loss_changes":[9.391556E0,1.5164936E0,3.7514195E0,0E0,1.6977599E0,0E0,0E0,0E0,0E0],"parents":[2147483647,0,0,1,1,2,2,4,4],"right_children":[2,4,6,-1,8,-1,-1,-1,-1],"split_conditions":[7.7601E-1,4.3872E-1,5.4917E-1,-1.418099E-2,6.5691E-1,-3.9431563E-4,3.9757535E-2,-9.822589E-3,1.2565732E-2],"split_indices":[14,14,0,0,10,0,0,0,0],"split_type":[0,0,0,0,0,0,0,0,0],"sum_hessian":[2.881858E1,2.2075802E1,6.7427797E0,1.4006419E1,8.069383E0,2.4273703E0,4.3154097E0,4.0829678E0,3.9864144E0],"tree_param":{"num_deleted":"0","num_feature":"18","num_nodes":"9","size_leaf_vector":"1"}},{"base_weights":[-2.7200822E-3,-1.11042615E-2,9.842148E-1,4.0095363E-2,1.6120285E-3],"categories":[],"categories_nodes":[],"categories_segments":[],"categories_sizes":[],"default_left":[0,0,0,0,0],"id":23,"left_children":[1,-1,3,-1,-1],"loss_changes":[1.1281919E1,0E0,2.1791563E0,0E0,0E0],"parents":[2147483647,0,0,2,2],"right_children":[2,-1,4,-1,-1],"split_conditions":[8.0408E-1,-1.11042615E-2,5.200176E-1,4.0095363E-2,1.6120285E-3],"split_indices":[10,0,15,0,0],"split_type":[0,0,0,0,0],"sum_hessian":[2.7610876E1,2.1252687E1,6.3581896E0,3.7450821E0,2.6131074E0],"tree_param":{"num_deleted":"0","num_feature":"18","num_nodes":"5","size_leaf_vector":"1"}},{"base_weights":[-1.3572523E-1,4.8482952E-1,-1.4626127E-2,9.080726E-1,-8.548213E-3,-7.326487E-3,4.7700744E-2],"categories":[],"categories_nodes":[],"categories_segments":[],"categories_sizes":[],"default_left":[0,0,0,0,0,0,0],"id":24,"left_children":[1,3,-1,5,-1,-1,-1],"loss_changes":[6.6392035E0,4.259662E0,0E0,7.2861676E0,0E0,0E0,0E0],"parents":[2147483647,0,0,1,1,3,3],"right_children":[2,4,-1,6,-1,-1,-1],"split_conditions":[3.6629E-1,2.555359E-1,-1.4626127E-2,3.5325E-1,-8.548213E-3,-7.326487E-3,4.7700744E-2],"split_indices":[13,15,0,1,0,0,0],"split_type":[0,0,0,0,0,0,0],"sum_hessian":[2.6241474E1,8.912313E0,1.732916E1,5.770118E0,3.1421955E0,2.4590101E0,3.311108E0],"tree_param":{"num_deleted":"0","num_feature":"18","num_nodes":"7","size_leaf_vector":"1"}},{"base_weights":[2.8777251E-2,-1.090196E-2,5.567824E-1,-1.0195493E-2,1.1077509E0,4.3965887E-2,5.8975643E-3],"categories":[],"categories_nodes":[],"categories_segments":[],"categories_sizes":[],"default_left":[0,0,0,0,0,0,0],"id":25,"left_children":[1,-1,3,-1,5,-1,-1],"loss_changes":[6.4089985E0,0E0,7.5806937E0,0E0,1.8423347E0,0E0,0E0],"parents":[2147483647,0,0,2,2,4,4],"right_children":[2,-1,4,-1,6,-1,-1],"split_conditions":[7.2117E-1,-1.090196E-2,3.654E-1,-1.0195493E-2,5.941E-1,4.3965887E-2,5.8975643E-3],"split_indices":[5,0,12,0,10,0,0],"split_type":[0,0,0,0,0,0,0],"sum_hessian":[2.6716326E1,1.5361727E1,1.1354598E1,4.4060926E0,6.9485054E0,3.879217E0,3.0692883E0],"tree_param":{"num_deleted":"0","num_feature":"18","num_nodes":"7","size_leaf_vector":"1"}},{"base_weights":[1.7758746E-2,6.5051764E-1,-4.2722914E-1,-1.0460329E-2,1.3222103E0,-0E0,-1.4181691E-2,4.763062E-2,9.066212E-3],"categories":[],"categories_nodes":[],"categories_segments":[],"categories_sizes":[],"default_left":[0,0,0,0,0,0,0,0,0],"id":26,"left_children":[1,3,5,-1,7,-1,-1,-1,-1],"loss_changes":[8.862372E0,1.00420685E1,2.726903E-1,0E0,7.6500225E-1,0E0,0E0,0E0,0E0],"parents":[2147483647,0,0,1,1,2,2,4,4],"right_children":[2,4,6,-1,8,-1,-1,-1,-1],"split_conditions":[3.2139E-1,4.7301E-1,1.3783E-1,-1.0460329E-2,5.941E-1,-0E0,-1.4181691E-2,4.763062E-2,9.066212E-3],"split_indices":[5,14,12,0,0,0,0,0,0],"split_type":[0,0,0,0,0,0,0,0,0],"sum_hessian":[2.7262865E1,1.115344E1,1.6109425E1,4.6907477E0,6.4626927E0,2.0976334E0,1.401179E1,4.0114183E0,2.4512744E0],"tree_param":{"num_deleted":"0","num_feature":"18","num_nodes":"9","size_leaf_vector":"1"}},{"base_weights":[3.715479E-2,1.6448576E-2,-6.957139E-2,-1.4291464E-2,5.042409E-1,2.7156988E-2,-0E0],"categories":[],"categories_nodes":[],"categories_segments":[],"categories_sizes":[],"default_left":[0,0,0,0,0,0,0],"id":27,"left_children":[1,-1,3,-1,5,-1,-1],"loss_changes":[1.8769633E0,0E0,6.639004E0,0E0,2.3492553E0,0E0,0E0],"parents":[2147483647,0,0,2,2,4,4],"right_children":[2,-1,4,-1,6,-1,-1],"split_conditions":[2.3237E-1,1.6448576E-2,6.514E-1,-1.4291464E-2,2.1706828E-1,2.7156988E-2,-0E0],"split_indices":[8,0,6,0,15,0,0],"split_type":[0,0,0,0,0,0,0],"sum_hessian":[2.837628E1,3.9578276E0,2.4418453E1,1.4793114E1,9.6253395E0,4.474003E0,5.1513367E0],"tree_param":{"num_deleted":"0","num_feature":"18","num_nodes":"7","size_leaf_vector":"1"}},{"base_weights":[-1.6006699E-1,-4.6507773E-1,8.079291E-1,-1.49994185E-2,-0E0,3.3113066E-2,-0E0],"categories":[],"categories_nodes":[],"categories_segments":[],"categories_sizes":[],"default_left":[0,0,0,0,0,0,0],"id":28,"left_children":[1,3,5,-1,-1,-1,-1],"loss_changes":[9.846911E0,3.15238E-1,2.043436E0,0E0,0E0,0E0,0E0],"parents":[2147483647,0,0,1,1,2,2],"right_children":[2,4,6,-1,-1,-1,-1],"split_conditions":[7.144E-1,9.1495E-1,4.9731E-1,-1.49994185E-2,-0E0,3.3113066E-2,-0E0],"split_indices":[12,1,5,0,0,0,0],"split_type":[0,0,0,0,0,0,0],"sum_hessian":[2.915425E1,2.319472E1,5.95953E0,2.1060934E1,2.133786E0,3.941869E0,2.0176609E0],"tree_param":{"num_deleted":"0","num_feature":"18","num_nodes":"7","size_leaf_vector":"1"}},{"base_weights":[1.7748557E-2,-4.1322425E-1,9.168177E-1,-4.4633454E-1,-0E0,1.3413135E0,-7.472422E-3,-1.4592336E-2,-0E0,6.5432903E-3,5.3032614E-2],"categories":[],"categories_nodes":[],"categories_segments":[],"categories_sizes":[],"default_left":[0,0,0,0,0,0,0,0,0,0,0],"id":29,"left_children":[1,3,5,7,-1,9,-1,-1,-1,-1,-1],"loss_changes":[1.3588287E1,2.4732804E-1,6.6628284E0,2.8439808E-1,0E0,2.894083E0,0E0,0E0,0E0,0E0,0E0],"parents":[2147483647,0,0,1,1,2,2,3,3,5,5],"right_children":[2,4,6,8,-1,10,-1,-1,-1,-1,-1],"split_conditions":[4.1023937E-1,9.6133E-1,2.3554163E-1,3.9890683E-1,-0E0,1.2207507E-1,-7.472422E-3,-1.4592336E-2,-0E0,6.5432903E-3,5.3032614E-2],"split_indices":[15,5,16,17,0,17,0,0,0,0,0],"split_type":[0,0,0,0,0,0,0,0,0,0,0],"sum_hessian":[3.072347E1,2.1273174E1,9.450295E0,1.9189833E1,2.0833426E0,6.895935E0,2.5543606E0,1.7043951E1,2.1458805E0,2.923126E0,3.972809E0],"tree_param":{"num_deleted":"0","num_feature":"18","num_nodes":"11","size_leaf_vector":"1"}},{"base_weights":[-0E0,-1.4954986E-2,1.3878231E0,6.2365577E-2,-6.5206112E-3],"categories":[],"categories_nodes":[],"categories_segments":[],"categories_sizes":[],"default_left":[0,0,0,0,0],"id":30,"left_children":[1,-1,3,-1,-1],"loss_changes":[2.1409542E1,0E0,1.0525096E1,0E0,0E0],"parents":[2147483647,0,0,2,2],"right_children":[2,-1,4,-1,-1],"split_conditions":[9.1037E-1,-1.4954986E-2,3.7032E-1,6.2365577E-2,-6.5206112E-3],"split_indices":[8,0,10,0,0],"split_type":[0,0,0,0,0],"sum_hessian":[2.6997993E1,2.0827461E1,6.1705313E0,4.031625E0,2.138907E0],"tree_param":{"num_deleted":"0","num_feature":"18","num_nodes":"5","size_leaf_vector":"1"}},{"base_weights":[-1.3459002E-2,-3.1059408E-1,3.418131E-2,1.032997E-2,-4.1512844E-1,-1.4582604E-2,-1.1252344E-3],"categories":[],"categories_nodes":[],"categories_segments":[],"categories_sizes":[],"default_left":[0,0,0,0,0,0,0],"id":31,"left_children":[1,3,-1,-1,5,-1,-1],"loss_changes":[1.0798699E1,2.0718942E0,0E0,0E0,4.3697882E-1,0E0,0E0],"parents":[2147483647,0,0,1,1,4,4],"right_children":[2,4,-1,-1,6,-1,-1],"split_conditions":[8.5306E-1,2.0677572E-2,3.418131E-2,1.032997E-2,7.4248E-1,-1.4582604E-2,-1.1252344E-3],"split_indices":[14,16,0,0,1,0,0],"split_type":[0,0,0,0,0,0,0],"sum_hessian":[2.818428E1,2.377726E1,4.4070215E0,2.2462578E0,2.1531002E1,1.6972746E1,4.558255E0],"tree_param":{"num_deleted":"0","num_feature":"18","num_nodes":"7","size_leaf_vector":"1"}},{"base_weights":[-1.02260664E-1,-1.4532255E-2,4.3942943E-1,-1.0822458E-2,1.095436E0,-0E0,4.5047607E-2],"categories":[],"categories_nodes":[],"categories_segments":[],"categories_sizes":[],"default_left":[0,0,0,0,0,0,0],"id":32,"left_children":[1,-1,3,-1,5,-1,-1],"loss_changes":[6.5372424E0,0E0,7.787203E0,0E0,3.6648006E0,0E0,0E0],"parents":[2147483647,0,0,2,2,4,4],"right_children":[2,-1,4,-1,6,-1,-1],"split_conditions":[6.2374E-1,-1.4532255E-2,6.1853E-1,-1.0822458E-2,3.5104E-1,-0E0,4.5047607E-2],"split_indices":[0,0,10,0,7,0,0],"split_type":[0,0,0,0,0,0,0],"sum_hessian":[2.7458237E1,1.6548811E1,1.0909428E1,5.114167E0,5.79526E0,2.021281E0,3.773979E0],"tree_param":{"num_deleted":"0","num_feature":"18","num_nodes":"7","size_leaf_vector":"1"}},{"base_weights":[-9.367804E-2,-3.959553E-1,3.7761398E-2,6.023398E-3,-1.49943335E-2],"categories":[],"categories_nodes":[],"categories_segments":[],"categories_sizes":[],"default_left":[0,0,0,0,0],"id":33,"left_children":[1,3,-1,-1,-1],"loss_changes":[1.2927051E1,1.9062514E0,0E0,0E0,0E0],"parents":[2147483647,0,0,1,1],"right_children":[2,4,-1,-1,-1],"split_conditions":[9.1292E-1,9.83E-2,3.7761398E-2,6.023398E-3,-1.49943335E-2],"split_indices":[5,12,0,0,0],"split_type":[0,0,0,0,0],"sum_hessian":[2.7816963E1,2.407267E1,3.744293E0,2.8636365E0,2.1209034E1],"tree_param":{"num_deleted":"0","num_feature":"18","num_nodes":"5","size_leaf_vector":"1"}},{"base_weights":[-1.7173383E-2,-1.378217E-2,3.0408195E-1,-1.1850645E-2,7.847157E-1,3.8437173E-2,-8.636695E-3],"categories":[],"categories_nodes":[],"categories_segments":[],"categories_sizes":[],"default_left":[0,0,0,0,0,0,0],"id":34,"left_children":[1,-1,3,-1,5,-1,-1],"loss_changes":[4.644332E0,0E0,6.9251013E0,0E0,7.3400846E0,0E0,0E0],"parents":[2147483647,0,0,2,2,4,4],"right_children":[2,-1,4,-1,6,-1,-1],"split_conditions":[3.654E-1,-1.378217E-2,4.3664E-1,-1.1850645E-2,6.3191E-1,3.8437173E-2,-8.636695E-3],"split_indices":[12,0,5,0,12,0,0],"split_type":[0,0,0,0,0,0,0],"sum_hessian":[2.8395979E1,1.1979316E1,1.6416664E1,6.5791154E0,9.837548E0,6.6498938E0,3.1876543E0],"tree_param":{"num_deleted":"0","num_feature":"18","num_nodes":"7","size_leaf_vector":"1"}},{"base_weights":[9.7145975E-2,4.3199384E-1,-2.1543115E-1,-1.1709992E-2,1.1567056E0,6.153635E-3,-3.706526E-1,2.6452076E-3,4.4479016E-2,-1.2861884E-2,-0E0],"categories":[],"categories_nodes":[],"categories_segments":[],"categories_sizes":[],"default_left":[0,0,0,0,0,0,0,0,0,0,0],"id":35,"left_children":[1,3,5,-1,7,-1,9,-1,-1,-1,-1],"loss_changes":[3.2636762E0,1.0087206E1,1.2303522E0,0E0,2.2920456E0,0E0,2.236278E-1,0E0,0E0,0E0,0E0],"parents":[2147483647,0,0,1,1,2,2,4,4,6,6],"right_children":[2,4,6,-1,8,-1,10,-1,-1,-1,-1],"split_conditions":[5.3751E-1,5.4208E-1,3.5219E-1,-1.1709992E-2,3.7328E-1,6.153635E-3,8.7164E-1,2.6452076E-3,4.4479016E-2,-1.2861884E-2,-0E0],"split_indices":[2,14,1,0,7,0,8,0,0,0,0],"split_type":[0,0,0,0,0,0,0,0,0,0,0],"sum_hessian":[2.6782831E1,1.3025242E1,1.3757589E1,6.34005E0,6.685191E0,3.0145056E0,1.0743084E1,2.3715963E0,4.313595E0,8.741126E0,2.0019581E0],"tree_param":{"num_deleted":"0","num_feature":"18","num_nodes":"11","size_leaf_vector":"1"}},{"base_weights":[-0E0,-2.301546E-1,5.657849E-1,-1.4552992E-2,2.2146456E-2,-4.8795445E-3,3.704905E-2],"categories":[],"categories_nodes":[],"categories_segments":[],"categories_sizes":[],"default_left":[0,0,0,0,0,0,0],"id":36,"left_children":[1,3,5,-1,-1,-1,-1],"loss_changes":[4.124465E0,6.010128E0,5.2495685E0,0E0,0E0,0E0,0E0],"parents":[2147483647,0,0,1,1,2,2],"right_children":[2,4,6,-1,-1,-1,-1],"split_conditions":[8.0719E-1,7.9543E-1,5.7051E-1,-1.4552992E-2,2.2146456E-2,-4.8795445E-3,3.704905E-2],"split_indices":[5,0,0,0,0,0,0],"split_type":[0,0,0,0,0,0,0],"sum_hessian":[2.703592E1,1.9750736E1,7.285185E0,1.6669914E1,3.08082E0,3.9983618E0,3.286823E0],"tree_param":{"num_deleted":"0","num_feature":"18","num_nodes":"7","size_leaf_vector":"1"}},{"base_weights":[-0E0,-4.1396448E-1,1.2137973E0,3.644605E-3,-1.4819139E-2,5.160254E-2,5.9184455E-3],"categories":[],"categories_nodes":[],"categories_segments":[],"categories_sizes":[],"default_left":[0,0,0,0,0,0,0],"id":37,"left_children":[1,3,5,-1,-1,-1,-1],"loss_changes":[1.5567944E1,1.2351122E0,2.7822428E0,0E0,0E0,0E0,0E0],"parents":[2147483647,0,0,1,1,2,2],"right_children":[2,4,6,-1,-1,-1,-1],"split_conditions":[7.144E-1,3.552858E-2,5.3466E-1,3.644605E-3,-1.4819139E-2,5.160254E-2,5.9184455E-3],"split_indices":[12,16,3,0,0,0,0],"split_type":[0,0,0,0,0,0,0],"sum_hessian":[2.7263384E1,2.1420883E1,5.8425E0,2.1623828E0,1.9258501E1,2.7789912E0,3.0635092E0],"tree_param":{"num_deleted":"0","num_feature":"18","num_nodes":"7","size_leaf_vector":"1"}},{"base_weights":[-6.2054873E-2,8.104625E-1,-4.5444828E-1,-3.722028E-3,1.3986624E0,-1.4762698E-2,-0E0,1.0119729E-2,5.182497E-2],"categories":[],"categories_nodes":[],"categories_segments":[],"categories_sizes":[],"default_left":[0,0,0,0,0,0,0,0,0],"id":38,"left_children":[1,3,5,-1,7,-1,-1,-1,-1],"loss_changes":[1.1267799E1,6.2924266E0,3.0345106E-1,0E0,5.084057E-1,0E0,0E0,0E0,0E0],"parents":[2147483647,0,0,1,1,2,2,4,4],"right_children":[2,4,6,-1,8,-1,-1,-1,-1],"split_conditions":[3.9726E-1,6.5676E-1,8.0248E-1,-3.722028E-3,8.138655E-2,-1.4762698E-2,-0E0,1.0119729E-2,5.182497E-2],"split_indices":[7,9,0,0,16,0,0,0,0],"split_type":[0,0,0,0,0,0,0,0,0],"sum_hessian":[2.9071575E1,8.120222E0,2.0951353E1,3.5492692E0,4.570953E0,1.882753E1,2.1238232E0,2.255413E0,2.31554E0],"tree_param":{"num_deleted":"0","num_feature":"18","num_nodes":"9","size_leaf_vector":"1"}},{"base_weights":[-9.137186E-2,-1.4776529E-2,1.0112377E0,5.069941E-2,-6.8356157E-3],"categories":[],"categories_nodes":[],"categories_segments":[],"categories_sizes":[],"default_left":[0,0,0,0,0],"id":39,"left_children":[1,-1,3,-1,-1],"loss_changes":[1.26137495E1,0E0,7.563576E0,0E0,0E0],"parents":[2147483647,0,0,2,2],"right_children":[2,-1,4,-1,-1],"split_conditions":[9.1037E-1,-1.4776529E-2,3.7032E-1,5.069941E-2,-6.8356157E-3],"split_indices":[8,0,10,0,0],"split_type":[0,0,0,0,0],"sum_hessian":[2.4615452E1,1.9059425E1,5.556025E0,3.2759068E0,2.2801185E0],"tree_param":{"num_deleted":"0","num_feature":"18","num_nodes":"5","size_leaf_vector":"1"}},{"base_weights":[-0E0,-2.8613308E-1,9.216971E-1,1.2791154E-1,-1.43149905E-2,4.3466058E-2,3.8454E-4,1.6878601E-2,-8.765508E-3],"categories":[],"categories_nodes":[],"categories_segments":[],"categories_sizes":[],"default_left":[0,0,0,0,0,0,0,0,0],"id":40,"left_children":[1,3,5,7,-1,-1,-1,-1,-1],"loss_changes":[8.160379E0,2.0884411E0,3.04004E0,1.9643692E0,0E0,0E0,0E0,0E0,0E0],"parents":[2147483647,0,0,1,1,2,2,3,3],"right_children":[2,4,6,8,-1,-1,-1,-1,-1],"split_conditions":[7.947E-1,3.9447E-1,1.2207507E-1,2.233639E-1,-1.43149905E-2,4.3466058E-2,3.8454E-4,1.6878601E-2,-8.765508E-3],"split_indices":[14,7,17,17,0,0,0,0,0],"split_type":[0,0,0,0,0,0,0,0,0],"sum_hessian":[2.687337E1,2.1535797E1,5.3375707E0,6.5120506E0,1.5023747E1,2.4172041E0,2.9203668E0,3.2178514E0,3.2941992E0],"tree_param":{"num_deleted":"0","num_feature":"18","num_nodes":"9","size_leaf_vector":"1"}},{"base_weights":[8.09365E-2,-4.2202607E-1,7.237867E-1,-1.4055587E-2,-0E0,-1.0208136E-2,1.3217214E0,4.968693E-2,7.1864487E-3],"categories":[],"categories_nodes":[],"categories_segments":[],"categories_sizes":[],"default_left":[0,0,0,0,0,0,0,0,0],"id":41,"left_children":[1,3,5,-1,-1,-1,7,-1,-1],"loss_changes":[1.025154E1,2.6453066E-1,1.0078224E1,0E0,0E0,0E0,2.0876179E0,0E0,0E0],"parents":[2147483647,0,0,1,1,2,2,6,6],"right_children":[2,4,6,-1,-1,-1,8,-1,-1],"split_conditions":[6.2722E-1,8.2022E-1,4.6694E-1,-1.4055587E-2,-0E0,-1.0208136E-2,6.877E-1,4.968693E-2,7.1864487E-3],"split_indices":[0,1,1,0,0,0,5,0,0],"split_type":[0,0,0,0,0,0,0,0,0],"sum_hessian":[2.7536728E1,1.5572911E1,1.1963818E1,1.3463362E1,2.1095493E0,4.4337792E0,7.5300384E0,4.729845E0,2.8001935E0],"tree_param":{"num_deleted":"0","num_feature":"18","num_nodes":"9","size_leaf_vector":"1"}},{"base_weights":[2.0391135E-2,6.3155395E-1,-3.82098E-1,-6.007943E-3,1.1825024E0,3.4372055E-3,-1.424418E-2,5.108673E-2,5.8764225E-4],"categories":[],"categories_nodes":[],"categories_segments":[],"categories_sizes":[],"default_left":[0,0,0,0,0,0,0,0,0],"id":42,"left_children":[1,3,5,-1,7,-1,-1,-1,-1],"loss_changes":[7.8324227E0,6.6311965E0,1.0816777E0,0E0,4.3803635E0,0E0,0E0,0E0,0E0],"parents":[2147483647,0,0,1,1,2,2,4,4],"right_children":[2,4,6,-1,8,-1,-1,-1,-1],"split_conditions":[3.1547E-1,3.9577E-1,2.0319E-1,-6.007943E-3,1.5750718E-1,3.4372055E-3,-1.424418E-2,5.108673E-2,5.8764225E-4],"split_indices":[12,2,13,0,15,0,0,0,0],"split_type":[0,0,0,0,0,0,0,0,0],"sum_hessian":[2.7574623E1,1.079301E1,1.6781612E1,4.5906205E0,6.2023897E0,2.0565007E0,1.4725112E1,3.465148E0,2.7372415E0],"tree_param":{"num_deleted":"0","num_feature":"18","num_nodes":"9","size_leaf_vector":"1"}},{"base_weights":[-9.005026E-2,-1.2356405E-2,4.9382605E-2,-2.0099361E-1,3.5285622E-1,-1.2342445E-2,6.8595037E-3,2.071229E-2,-8.165782E-3],"categories":[],"categories_nodes":[],"categories_segments":[],"categories_sizes":[],"default_left":[0,0,0,0,0,0,0,0,0],"id":43,"left_children":[1,-1,3,5,7,-1,-1,-1,-1],"loss_changes":[1.435029E0,0E0,1.7925004E0,1.3556352E0,2.7835956E0,0E0,0E0,0E0,0E0],"parents":[2147483647,0,0,2,2,3,3,4,4],"right_children":[2,-1,4,6,8,-1,-1,-1,-1],"split_conditions":[3.6621E-1,-1.2356405E-2,5.2638E-1,7.7307E-1,7.9066E-1,-1.2342445E-2,6.8595037E-3,2.071229E-2,-8.165782E-3],"split_indices":[9,0,7,14,6,0,0,0,0],"split_type":[0,0,0,0,0,0,0,0,0],"sum_hessian":[2.6649324E1,7.5247717E0,1.9124554E1,1.030741E1,8.817143E0,7.444513E0,2.862897E0,5.901112E0,2.9160311E0],"tree_param":{"num_deleted":"0","num_feature":"18","num_nodes":"9","size_leaf_vector":"1"}},{"base_weights":[-4.004388E-2,6.3920474E-1,-4.3342036E-1,-1.0824501E-2,5.169377E-2,-0E0,-1.4309315E-2],"categories":[],"categories_nodes":[],"categories_segments":[],"categories_sizes":[],"default_left":[0,0,0,0,0,0,0],"id":44,"left_children":[1,3,5,-1,-1,-1,-1],"loss_changes":[7.932407E0,1.3293926E1,2.776134E-1,0E0,0E0,0E0,0E0],"parents":[2147483647,0,0,1,1,2,2],"right_children":[2,4,6,-1,-1,-1,-1],"split_conditions":[3.2139E-1,5.6917E-1,1.3743E-1,-1.0824501E-2,5.169377E-2,-0E0,-1.4309315E-2],"split_indices":[5,13,12,0,0,0,0],"split_type":[0,0,0,0,0,0,0],"sum_hessian":[2.5844467E1,8.740191E0,1.7104275E1,5.096055E0,3.6441364E0,2.109591E0,1.4994684E1],"tree_param":{"num_deleted":"0","num_feature":"18","num_nodes":"7","size_leaf_vector":"1"}},{"base_weights":[3.744696E-2,-3.5482582E-1,1.0647463E0,-4.3345222E-1,2.7807325E-3,6.0333856E-3,4.1894544E-2,-1.4252831E-2,-0E0],"categories":[],"categories_nodes":[],"categories_segments":[],"categories_sizes":[],"default_left":[0,0,0,0,0,0,0,0,0],"id":45,"left_children":[1,3,5,7,-1,-1,-1,-1,-1],"loss_changes":[1.1896298E1,9.18427E-1,1.3096333E0,2.4495578E-1,0E0,0E0,0E0,0E0,0E0],"parents":[2147483647,0,0,1,1,2,2,3,3],"right_children":[2,4,6,8,-1,-1,-1,-1,-1],"split_conditions":[8.2677E-1,8.9748E-1,3.8997E-1,7.5194E-1,2.7807325E-3,6.0333856E-3,4.1894544E-2,-1.4252831E-2,-0E0],"split_indices":[6,1,5,0,0,0,0,0,0],"split_type":[0,0,0,0,0,0,0,0,0],"sum_hessian":[2.5117176E1,1.8912603E1,6.204572E0,1.6709972E1,2.2026324E0,2.864379E0,3.3401933E0,1.4659089E1,2.0508828E0],"tree_param":{"num_deleted":"0","num_feature":"18","num_nodes":"9","size_leaf_vector":"1"}},{"base_weights":[6.387803E-2,-7.501783E-2,2.864634E-2,-4.444026E-1,7.942984E-1,-1.4549901E-2,-0E0,4.1833177E-2,-0E0],"categories":[],"categories_nodes":[],"categories_segments":[],"categories_sizes":[],"default_left":[0,0,0,0,0,0,0,0,0],"id":46,"left_children":[1,3,-1,5,7,-1,-1,-1,-1],"loss_changes":[4.1619334E0,9.531419E0,0E0,3.0246496E-1,4.29487E0,0E0,0E0,0E0,0E0],"parents":[2147483647,0,0,1,1,3,3,4,4],"right_children":[2,4,-1,6,8,-1,-1,-1,-1],"split_conditions":[9.2936E-1,6.5679E-1,2.864634E-2,9.7775E-1,4.4573E-1,-1.4549901E-2,-0E0,4.1833177E-2,-0E0],"split_indices":[9,12,0,8,9,0,0,0,0],"split_type":[0,0,0,0,0,0,0,0,0],"sum_hessian":[2.8339563E1,2.5810877E1,2.5286863E0,1.904224E1,6.7686367E0,1.695306E1,2.089178E0,3.05389E0,3.714747E0],"tree_param":{"num_deleted":"0","num_feature":"18","num_nodes":"9","size_leaf_vector":"1"}},{"base_weights":[-0E0,-1.4407448E-2,6.194579E-1,9.1590023E-1,-7.7442597E-3,-0E0,4.4234633E-2],"categories":[],"categories_nodes":[],"categories_segments":[],"categories_sizes":[],"default_left":[0,0,0,0,0,0,0],"id":47,"left_children":[1,-1,3,5,-1,-1,-1],"loss_changes":[9.293491E0,0E0,4.169411E0,5.8044367E0,0E0,0E0,0E0],"parents":[2147483647,0,0,2,2,3,3],"right_children":[2,-1,4,6,-1,-1,-1],"split_conditions":[6.0045E-1,-1.4407448E-2,2.3327367E-1,2.7557E-1,-7.7442597E-3,-0E0,4.4234633E-2],"split_indices":[9,0,16,4,0,0,0],"split_type":[0,0,0,0,0,0,0],"sum_hessian":[2.736675E1,1.5916374E1,1.14503765E1,8.749472E0,2.7009053E0,3.9320378E0,4.817434E0],"tree_param":{"num_deleted":"0","num_feature":"18","num_nodes":"7","size_leaf_vector":"1"}},{"base_weights":[-2.8785517E-2,-1.5034276E-2,4.897463E-2],"categories":[],"categories_nodes":[],"categories_segments":[],"categories_sizes":[],"default_left":[0,0,0],"id":48,"left_children":[1,-1,-1],"loss_changes":[2.41543E1,0E0,0E0],"parents":[2147483647,0,0],"right_children":[2,-1,-1],"split_conditions":[9.2651E-1,-1.5034276E-2,4.897463E-2],"split_indices":[7,0,0],"split_type":[0,0,0],"sum_hessian":[2.7128426E1,2.2350634E1,4.777792E0],"tree_param":{"num_deleted":"0","num_feature":"18","num_nodes":"3","size_leaf_vector":"1"}},{"base_weights":[-1.6378729E-2,7.3430854E-1,-1.4693259E-2,-5.6330343E-3,1.3548579E0,1.40430955E-2,5.556983E-2],"categories":[],"categories_nodes":[],"categories_segments":[],"categories_sizes":[],"default_left":[0,0,0,0,0,0,0],"id":49,"left_children":[1,3,-1,-1,5,-1,-1],"loss_changes":[1.1430272E1,7.8918943E0,0E0,0E0,1.0038376E0,0E0,0E0],"parents":[2147483647,0,0,1,1,4,4],"right_children":[2,4,-1,-1,6,-1,-1],"split_conditions":[3.5938E-1,5.8665E-1,-1.4693259E-2,-5.6330343E-3,8.2072E-1,1.40430955E-2,5.556983E-2],"split_indices":[4,1,0,0,14,0,0],"split_type":[0,0,0,0,0,0,0],"sum_hessian":[2.8346552E1,1.0291238E1,1.8055315E1,4.5064616E0,5.7847757E0,3.6908011E0,2.0939746E0],"tree_param":{"num_deleted":"0","num_feature":"18","num_nodes":"7","size_leaf_vector":"1"}},{"base_weights":[-1.109419E-1,-4.270179E-1,1.1653831E0,-1.4979833E-2,2.253833E-3,4.1980725E-3,4.5604225E-2],"categories":[],"categories_nodes":[],"categories_segments":[],"categories_sizes":[],"default_left":[0,0,0,0,0,0,0],"id":50,"left_children":[1,3,5,-1,-1,-1,-1],"loss_changes":[1.2878602E1,1.135531E0,1.3697624E0,0E0,0E0,0E0,0E0],"parents":[2147483647,0,0,1,1,2,2],"right_children":[2,4,6,-1,-1,-1,-1],"split_conditions":[8.4351E-1,7.4526E-1,4.2605E-1,-1.4979833E-2,2.253833E-3,4.1980725E-3,4.5604225E-2],"split_indices":[11,11,14,0,0,0,0],"split_type":[0,0,0,0,0,0,0],"sum_hessian":[2.8005856E1,2.3702063E1,4.3037934E0,2.1250599E1,2.4514642E0,2.040415E0,2.2633784E0],"tree_param":{"num_deleted":"0","num_feature":"18","num_nodes":"7","size_leaf_vector":"1"}},{"base_weights":[2.2674479E-2,-3.8788113E-1,1.3326545E0,1.661159E-3,-1.475968E-2,5.0843548E-2,3.0693912E-3],"categories":[],"categories_nodes":[],"categories_segments":[],"categories_sizes":[],"default_left":[0,0,0,0,0,0,0],"id":51,"left_children":[1,3,5,-1,-1,-1,-1],"loss_changes":[1.8043697E1,1.3416195E0,2.699131E0,0E0,0E0,0E0,0E0],"parents":[2147483647,0,0,1,1,2,2],"right_children":[2,4,6,-1,-1,-1,-1],"split_conditions":[8.652E-1,5.7384815E-2,3.7289E-1,1.661159E-3,-1.475968E-2,5.0843548E-2,3.0693912E-3],"split_indices":[5,17,10,0,0,0,0],"split_type":[0,0,0,0,0,0,0],"sum_hessian":[2.910047E1,2.3054E1,6.0464673E0,4.0148687E0,1.9039133E1,3.8998065E0,2.1466608E0],"tree_param":{"num_deleted":"0","num_feature":"18","num_nodes":"7","size_leaf_vector":"1"}},{"base_weights":[-3.3692725E-2,2.2633162E-1,-3.3310118E-1,-1.1547208E-2,6.9241583E-1,4.4279387E-3,-1.3584094E-2,3.334829E-2,-7.527834E-3],"categories":[],"categories_nodes":[],"categories_segments":[],"categories_sizes":[],"default_left":[0,0,0,0,0,0,0,0,0],"id":52,"left_children":[1,3,5,-1,7,-1,-1,-1,-1],"loss_changes":[2.4711468E0,5.293364E0,1.0887499E0,0E0,4.8850765E0,0E0,0E0,0E0,0E0],"parents":[2147483647,0,0,1,1,2,2,4,4],"right_children":[2,4,6,-1,8,-1,-1,-1,-1],"split_conditions":[5.527E-1,3.654E-1,2.557E-1,-1.1547208E-2,7.7056E-1,4.4279387E-3,-1.3584094E-2,3.334829E-2,-7.527834E-3],"split_indices":[0,12,10,0,12,0,0,0,0],"split_type":[0,0,0,0,0,0,0,0,0],"sum_hessian":[2.7392813E1,1.4385631E1,1.3007182E1,6.0959167E0,8.289714E0,2.000651E0,1.1006532E1,5.712516E0,2.5771983E0],"tree_param":{"num_deleted":"0","num_feature":"18","num_nodes":"9","size_leaf_vector":"1"}},{"base_weights":[-1.2907769E-1,-1.4865319E-2,7.595375E-1,1.1439525E0,-6.2802937E-3,4.4827677E-2,3.6024768E-3],"categories":[],"categories_nodes":[],"categories_segments":[],"categories_sizes":[],"default_left":[0,0,0,0,0,0,0],"id":53,"left_children":[1,-1,3,5,-1,-1,-1],"loss_changes":[1.0089468E1,0E0,4.1089773E0,1.6566772E0,0E0,0E0,0E0],"parents":[2147483647,0,0,2,2,3,3],"right_children":[2,-1,4,6,-1,-1,-1],"split_conditions":[7.6385E-1,-1.4865319E-2,7.8481E-1,4.2516E-1,-6.2802937E-3,4.4827677E-2,3.6024768E-3],"split_indices":[13,0,1,5,0,0,0],"split_type":[0,0,0,0,0,0,0],"sum_hessian":[2.6917202E1,1.9923733E1,6.9934697E0,4.969863E0,2.0236068E0,2.800026E0,2.1698368E0],"tree_param":{"num_deleted":"0","num_feature":"18","num_nodes":"7","size_leaf_vector":"1"}},{"base_weights":[1.8161085E-2,-1.4445445E-2,7.049799E-1,-5.567184E-3,1.1972755E0,4.3284878E-2,3.2852958E-3],"categories":[],"categories_nodes":[],"categories_segments":[],"categories_sizes":[],"default_left":[0,0,0,0,0,0,0],"id":54,"left_children":[1,-1,3,-1,5,-1,-1],"loss_changes":[1.093293E1,0E0,6.6951017E0,0E0,1.6813631E0,0E0,0E0],"parents":[2147483647,0,0,2,2,4,4],"right_children":[2,-1,4,-1,6,-1,-1],"split_conditions":[6.514E-1,-1.4445445E-2,5.941E-1,-5.567184E-3,9.0527E-1,4.3284878E-2,3.2852958E-3],"split_indices":[6,0,0,0,11,0,0],"split_type":[0,0,0,0,0,0,0],"sum_hessian":[2.7683464E1,1.6118177E1,1.1565287E1,4.3439217E0,7.2213655E0,5.133823E0,2.0875423E0],"tree_param":{"num_deleted":"0","num_feature":"18","num_nodes":"7","size_leaf_vector":"1"}},{"base_weights":[-4.8524972E-2,2.415491E-2,-1.9697781E-1,-4.3439272E-1,3.5058933E-1,-0E0,-1.4325839E-2,2.1325331E-2,-7.259972E-3],"categories":[],"categories_nodes":[],"categories_segments":[],"categories_sizes":[],"default_left":[0,0,0,0,0,0,0,0,0],"id":55,"left_children":[1,-1,3,5,7,-1,-1,-1,-1],"loss_changes":[3.7228158E0,0E0,3.7129123E0,2.8814387E-1,2.3197067E0,0E0,0E0,0E0,0E0],"parents":[2147483647,0,0,2,2,3,3,4,4],"right_children":[2,-1,4,6,8,-1,-1,-1,-1],"split_conditions":[6.392E-2,2.415491E-2,2.9138213E-1,1.8297E-1,5.5858E-1,-0E0,-1.4325839E-2,2.1325331E-2,-7.259972E-3],"split_indices":[9,0,17,3,3,0,0,0,0],"split_type":[0,0,0,0,0,0,0,0,0],"sum_hessian":[2.6312172E1,2.2877955E0,2.4024376E1,1.7428816E1,6.5955596E0,2.0878863E0,1.534093E1,4.168513E0,2.4270468E0],"tree_param":{"num_deleted":"0","num_feature":"18","num_nodes":"9","size_leaf_vector":"1"}},{"base_weights":[2.3027837E-2,-4.2660433E-1,7.970005E-1,-1.4143611E-2,-0E0,1.1999522E0,-7.3466436E-3,-6.530032E-3,5.3124744E-2],"categories":[],"categories_nodes":[],"categories_segments":[],"categories_sizes":[],"default_left":[0,0,0,0,0,0,0,0,0],"id":56,"left_children":[1,3,5,-1,-1,7,-1,-1,-1],"loss_changes":[1.0263743E1,2.6092672E-1,5.4692073E0,0E0,0E0,8.066412E0,0E0,0E0,0E0],"parents":[2147483647,0,0,1,1,2,2,5,5],"right_children":[2,4,6,-1,-1,8,-1,-1,-1],"split_conditions":[4.1426635E-1,3.8124588E-1,2.3554163E-1,-1.4143611E-2,-0E0,4.809308E-2,-7.3466436E-3,-6.530032E-3,5.3124744E-2],"split_indices":[15,17,16,0,0,16,0,0,0],"split_type":[0,0,0,0,0,0,0,0,0],"sum_hessian":[2.5219923E1,1.6275082E1,8.944841E0,1.4137376E1,2.137705E0,6.439052E0,2.5057895E0,2.0529566E0,4.3860955E0],"tree_param":{"num_deleted":"0","num_feature":"18","num_nodes":"9","size_leaf_vector":"1"}},{"base_weights":[-0E0,1.0024077E0,-4.5539084E-1,5.602383E-2,-9.516152E-3,-0E0,-1.4759593E-2],"categories":[],"categories_nodes":[],"categories_segments":[],"categories_sizes":[],"default_left":[0,0,0,0,0,0,0],"id":57,"left_children":[1,3,5,-1,-1,-1,-1],"loss_changes":[1.567851E1,1.3961379E1,2.8648376E-1,0E0,0E0,0E0,0E0],"parents":[2147483647,0,0,1,1,2,2],"right_children":[2,4,6,-1,-1,-1,-1],"split_conditions":[3.5325E-1,2.7E-1,1.6126378E-2,5.602383E-2,-9.516152E-3,-0E0,-1.4759593E-2],"split_indices":[1,11,15,0,0,0,0],"split_type":[0,0,0,0,0,0,0],"sum_hessian":[3.0130634E1,8.785095E0,2.1345541E1,4.9422784E0,3.8428168E0,2.1602972E0,1.9185244E1],"tree_param":{"num_deleted":"0","num_feature":"18","num_nodes":"7","size_leaf_vector":"1"}},{"base_weights":[-2.3147345E-2,-3.566463E-1,9.660496E-1,3.0952424E-3,-1.3068419E-2,4.7317576E-2,-7.0432876E-4],"categories":[],"categories_nodes":[],"categories_segments":[],"categories_sizes":[],"default_left":[0,0,0,0,0,0,0],"id":58,"left_children":[1,3,5,-1,-1,-1,-1],"loss_changes":[9.403581E0,9.832878E-1,4.841897E0,0E0,0E0,0E0,0E0],"parents":[2147483647,0,0,1,1,2,2],"right_children":[2,4,6,-1,-1,-1,-1],"split_conditions":[7.9103E-1,3.9428174E-2,1.274251E-1,3.0952424E-3,-1.3068419E-2,4.7317576E-2,-7.0432876E-4],"split_indices":[14,16,17,0,0,0,0],"split_type":[0,0,0,0,0,0,0],"sum_hessian":[2.4970081E1,1.9857496E1,5.112585E0,2.2637556E0,1.7593742E1,2.6135519E0,2.499033E0],"tree_param":{"num_deleted":"0","num_feature":"18","num_nodes":"7","size_leaf_vector":"1"}},{"base_weights":[4.6032365E-2,-3.852348E-1,1.4770676E0,-1.488073E-2,5.7560396E-3,4.142298E-3,5.563796E-2],"categories":[],"categories_nodes":[],"categories_segments":[],"categories_sizes":[],"default_left":[0,0,0,0,0,0,0],"id":59,"left_children":[1,3,5,-1,-1,-1,-1],"loss_changes":[2.0722527E1,1.9057128E0,2.8333435E0,0E0,0E0,0E0,0E0],"parents":[2147483647,0,0,1,1,2,2],"right_children":[2,4,6,-1,-1,-1,-1],"split_conditions":[8.3493E-1,7.4526E-1,6.9342E-1,-1.488073E-2,5.7560396E-3,4.142298E-3,5.563796E-2],"split_indices":[11,11,10,0,0,0,0],"split_type":[0,0,0,0,0,0,0],"sum_hessian":[2.9202589E1,2.3401964E1,5.800625E0,2.0304771E1,3.0971937E0,2.0513175E0,3.7493076E0],"tree_param":{"num_deleted":"0","num_feature":"18","num_nodes":"7","size_leaf_vector":"1"}},{"base_weights":[2.2916764E-2,-1.267325E-2,1.3039305E0,5.2889682E-2,-0E0],"categories":[],"categories_nodes":[],"categories_segments":[],"categories_sizes":[],"default_left":[0,0,0,0,0],"id":60,"left_children":[1,-1,3,-1,-1],"loss_changes":[1.9100275E1,0E0,5.6062355E0,0E0,0E0],"parents":[2147483647,0,0,2,2],"right_children":[2,-1,4,-1,-1],"split_conditions":[8.3803E-1,-1.267325E-2,3.843E-1,5.2889682E-2,-0E0],"split_indices":[5,0,14,0,0],"split_type":[0,0,0,0,0],"sum_hessian":[2.908473E1,2.2402517E1,6.682213E0,4.553144E0,2.1290689E0],"tree_param":{"num_deleted":"0","num_feature":"18","num_nodes":"5","size_leaf_vector":"1"}},{"base_weights":[-7.214698E-2,-1.4301823E-2,3.8791028E-1,-1.8426272E-1,1.0136265E0,3.5612693E-3,-1.0719764E-2,3.931954E-2,3.0504996E-3],"categories":[],"categories_nodes":[],"categories_segments":[],"categories_sizes":[],"default_left":[0,0,0,0,0,0,0,0,0],"id":61,"left_children":[1,-1,3,5,7,-1,-1,-1,-1],"loss_changes":[5.916276E0,0E0,5.860914E0,6.3277435E-1,1.3540459E0,0E0,0E0,0E0,0E0],"parents":[2147483647,0,0,2,2,3,3,4,4],"right_children":[2,-1,4,6,8,-1,-1,-1,-1],"split_conditions":[6.1932E-1,-1.4301823E-2,6.1294E-1,3.5625E-1,8.05E-1,3.5612693E-3,-1.0719764E-2,3.931954E-2,3.0504996E-3],"split_indices":[5,0,2,4,2,0,0,0,0],"split_type":[0,0,0,0,0,0,0,0,0],"sum_hessian":[2.7655458E1,1.5023348E1,1.263211E1,7.0849814E0,5.547128E0,2.1739054E0,4.911076E0,3.276554E0,2.270574E0],"tree_param":{"num_deleted":"0","num_feature":"18","num_nodes":"9","size_leaf_vector":"1"}},{"base_weights":[-6.7137145E-3,-1.4762689E-2,1.0944867E0,4.8486996E-2,-6.563008E-3],"categories":[],"categories_nodes":[],"categories_segments":[],"categories_sizes":[],"default_left":[0,0,0,0,0],"id":62,"left_children":[1,-1,3,-1,-1],"loss_changes":[1.5849375E1,0E0,7.286045E0,0E0,0E0],"parents":[2147483647,0,0,2,2],"right_children":[2,-1,4,-1,-1],"split_conditions":[7.5055E-1,-1.4762689E-2,5.0777E-1,4.8486996E-2,-6.563008E-3],"split_indices":[13,0,5,0,0],"split_type":[0,0,0,0,0],"sum_hessian":[2.5975735E1,1.8985983E1,6.9897523E0,4.8356175E0,2.154135E0],"tree_param":{"num_deleted":"0","num_feature":"18","num_nodes":"5","size_leaf_vector":"1"}},{"base_weights":[5.3995285E-2,-3.4455094E-1,8.7855023E-1,-1.4106137E-2,5.280375E-2,-7.2180694E-3,4.0306058E-2,-6.2846406E-3,1.0922666E-2],"categories":[],"categories_nodes":[],"categories_segments":[],"categories_sizes":[],"default_left":[0,0,0,0,0,0,0,0,0],"id":63,"left_children":[1,3,5,-1,7,-1,-1,-1,-1],"loss_changes":[9.945865E0,1.1746602E0,6.1352E0,0E0,6.9169104E-1,0E0,0E0,0E0,0E0],"parents":[2147483647,0,0,1,1,2,2,4,4],"right_children":[2,4,6,-1,8,-1,-1,-1,-1],"split_conditions":[8.0779E-1,6.514E-1,4.8846E-1,-1.4106137E-2,1.6852689E-1,-7.2180694E-3,4.0306058E-2,-6.2846406E-3,1.0922666E-2],"split_indices":[6,6,0,0,17,0,0,0,0],"split_type":[0,0,0,0,0,0,0,0,0],"sum_hessian":[2.59355E1,1.8024063E1,7.911436E0,1.3988775E1,4.0352874E0,2.4161189E0,5.495317E0,2.0219069E0,2.0133803E0],"tree_param":{"num_deleted":"0","num_feature":"18","num_nodes":"9","size_leaf_vector":"1"}},{"base_weights":[-0E0,-2.2045049E-1,3.4188785E-2,-3.4835792E-1,7.866285E-3,5.507231E-4,-1.2772408E-2],"categories":[],"categories_nodes":[],"categories_segments":[],"categories_sizes":[],"default_left":[0,0,0,0,0,0,0],"id":64,"left_children":[1,3,-1,5,-1,-1,-1],"loss_changes":[7.2148705E0,1.7457712E0,0E0,7.347939E-1,0E0,0E0,0E0],"parents":[2147483647,0,0,1,1,3,3],"right_children":[2,4,-1,6,-1,-1,-1],"split_conditions":[9.2936E-1,3.9280275E-1,3.4188785E-2,1.112E-1,7.866285E-3,5.507231E-4,-1.2772408E-2],"split_indices":[9,17,0,5,0,0,0],"split_type":[0,0,0,0,0,0,0],"sum_hessian":[2.5523817E1,2.2900322E1,2.6234953E0,1.9034218E1,3.8661036E0,2.9072063E0,1.6127012E1],"tree_param":{"num_deleted":"0","num_feature":"18","num_nodes":"7","size_leaf_vector":"1"}},{"base_weights":[-6.757716E-2,-4.5067987E-1,8.555993E-1,-1.4662972E-2,-0E0,4.0685236E-2,-7.06495E-3],"categories":[],"categories_nodes":[],"categories_segments":[],"categories_sizes":[],"default_left":[0,0,0,0,0,0,0],"id":65,"left_children":[1,3,5,-1,-1,-1,-1],"loss_changes":[1.1017843E1,3.0321407E-1,5.922222E0,0E0,0E0,0E0,0E0],"parents":[2147483647,0,0,1,1,2,2],"right_children":[2,4,6,-1,-1,-1,-1],"split_conditions":[4.7132164E-1,4.1023937E-1,4.3373E-1,-1.4662972E-2,-0E0,4.0685236E-2,-7.06495E-3],"split_indices":[15,15,7,0,0,0,0],"split_type":[0,0,0,0,0,0,0],"sum_hessian":[2.7315676E1,2.0257677E1,7.0579977E0,1.8193325E1,2.0643525E0,4.693685E0,2.364313E0],"tree_param":{"num_deleted":"0","num_feature":"18","num_nodes":"7","size_leaf_vector":"1"}},{"base_weights":[1.2267793E-2,-1.4859778E-2,1.3227725E0,-6.9508227E-3,5.9490483E-2],"categories":[],"categories_nodes":[],"categories_segments":[],"categories_sizes":[],"default_left":[0,0,0,0,0],"id":66,"left_children":[1,-1,3,-1,-1],"loss_changes":[2.1146084E1,0E0,1.0610262E1,0E0,0E0],"parents":[2147483647,0,0,2,2],"right_children":[2,-1,4,-1,-1],"split_conditions":[9.1037E-1,-1.4859778E-2,8.9884E-1,-6.9508227E-3,5.9490483E-2],"split_indices":[8,0,7,0,0],"split_type":[0,0,0,0,0],"sum_hessian":[2.7445766E1,2.051493E1,6.930836E0,2.3177478E0,4.613088E0],"tree_param":{"num_deleted":"0","num_feature":"18","num_nodes":"5","size_leaf_vector":"1"}},{"base_weights":[7.285376E-3,-3.206686E-1,8.7881577E-1,-1.4029939E-2,-0E0,-7.376068E-3,1.4326394E0,-9.099069E-3,8.563766E-3,5.2140865E-2,1.075932E-2],"categories":[],"categories_nodes":[],"categories_segments":[],"categories_sizes":[],"default_left":[0,0,0,0,0,0,0,0,0,0,0],"id":67,"left_children":[1,3,5,-1,7,-1,9,-1,-1,-1,-1],"loss_changes":[9.241196E0,1.0617969E0,6.6199627E0,0E0,9.747356E-1,0E0,2.405634E-1,0E0,0E0,0E0,0E0],"parents":[2147483647,0,0,1,1,2,2,4,4,6,6],"right_children":[2,4,6,-1,8,-1,10,-1,-1,-1,-1],"split_conditions":[7.7878E-1,6.5691E-1,5.8512E-1,-1.4029939E-2,6.1794E-1,-7.376068E-3,1.1472659E-1,-9.099069E-3,8.563766E-3,5.2140865E-2,1.075932E-2],"split_indices":[14,10,1,0,9,0,17,0,0,0,0],"split_type":[0,0,0,0,0,0,0,0,0,0,0],"sum_hessian":[2.7774258E1,2.084882E1,6.925438E0,1.3597367E1,7.2514524E0,2.4732554E0,4.452183E0,3.5105345E0,3.7409177E0,2.2862046E0,2.165978E0],"tree_param":{"num_deleted":"0","num_feature":"18","num_nodes":"11","size_leaf_vector":"1"}},{"base_weights":[-1.1320398E-1,-1.4909673E-2,8.252581E-1,3.57657E-2,-7.487737E-4],"categories":[],"categories_nodes":[],"categories_segments":[],"categories_sizes":[],"default_left":[0,0,0,0,0],"id":68,"left_children":[1,-1,3,-1,-1],"loss_changes":[1.1577675E1,0E0,3.3027167E0,0E0,0E0],"parents":[2147483647,0,0,2,2],"right_children":[2,-1,4,-1,-1],"split_conditions":[7.6414E-1,-1.4909673E-2,6.5676E-1,3.57657E-2,-7.487737E-4],"split_indices":[11,0,9,0,0],"split_type":[0,0,0,0,0],"sum_hessian":[2.814114E1,2.0867762E1,7.273379E0,4.7652383E0,2.5081406E0],"tree_param":{"num_deleted":"0","num_feature":"18","num_nodes":"5","size_leaf_vector":"1"}},{"base_weights":[7.340248E-2,7.742995E-1,-1.4255266E-2,1.1640382E0,-8.394463E-3,-8.608065E-3,5.73664E-2],"categories":[],"categories_nodes":[],"categories_segments":[],"categories_sizes":[],"default_left":[0,0,0,0,0,0,0],"id":69,"left_children":[1,3,-1,5,-1,-1,-1],"loss_changes":[1.181971E1,6.485323E0,0E0,1.2973992E1,0E0,0E0,0E0],"parents":[2147483647,0,0,1,1,3,3],"right_children":[2,4,-1,6,-1,-1,-1],"split_conditions":[3.9747E-1,4.3545E-1,-1.4255266E-2,3.9178E-1,-8.394463E-3,-8.608065E-3,5.73664E-2],"split_indices":[13,11,0,5,0,0,0],"split_type":[0,0,0,0,0,0,0],"sum_hessian":[2.6593523E1,1.1554596E1,1.5038928E1,8.491183E0,3.063412E0,3.1718514E0,5.319332E0],"tree_param":{"num_deleted":"0","num_feature":"18","num_nodes":"7","size_leaf_vector":"1"}},{"base_weights":[-1.6679635E-2,-1.4541487E-2,6.075365E-1,1.232069E0,-3.4565862E-2,4.6405222E-2,4.272713E-3,3.6342253E-3,-7.961587E-3],"categories":[],"categories_nodes":[],"categories_segments":[],"categories_sizes":[],"default_left":[0,0,0,0,0,0,0,0,0],"id":70,"left_children":[1,-1,3,5,7,-1,-1,-1,-1],"loss_changes":[9.410656E0,0E0,5.9005094E0,1.51824E0,4.100838E-1,0E0,0E0,0E0,0E0],"parents":[2147483647,0,0,2,2,3,3,4,4],"right_children":[2,-1,4,6,8,-1,-1,-1,-1],"split_conditions":[5.8943E-1,-1.4541487E-2,5.052E-1,6.727E-1,3.530982E-1,4.6405222E-2,4.272713E-3,3.6342253E-3,-7.961587E-3],"split_indices":[2,0,1,0,15,0,0,0,0],"split_type":[0,0,0,0,0,0,0,0,0],"sum_hessian":[2.8321255E1,1.671553E1,1.1605724E1,5.1886535E0,6.4170713E0,3.1610277E0,2.0276258E0,3.62342E0,2.7936513E0],"tree_param":{"num_deleted":"0","num_feature":"18","num_nodes":"9","size_leaf_vector":"1"}},{"base_weights":[8.551316E-2,5.0462615E-1,-1.3613087E-2,7.297637E-1,-4.40536E-3,-8.66483E-3,3.353166E-2],"categories":[],"categories_nodes":[],"categories_segments":[],"categories_sizes":[],"default_left":[0,0,0,0,0,0,0],"id":71,"left_children":[1,3,-1,5,-1,-1,-1],"loss_changes":[7.0813756E0,2.9869428E0,0E0,6.363444E0,0E0,0E0,0E0],"parents":[2147483647,0,0,1,1,3,3],"right_children":[2,4,-1,6,-1,-1,-1],"split_conditions":[5.0777E-1,8.9884E-1,-1.3613087E-2,4.8129E-1,-4.40536E-3,-8.66483E-3,3.353166E-2],"split_indices":[5,7,0,11,0,0,0],"split_type":[0,0,0,0,0,0,0],"sum_hessian":[2.7236961E1,1.5711397E1,1.1525563E1,1.1839878E1,3.87152E0,3.1933744E0,8.646503E0],"tree_param":{"num_deleted":"0","num_feature":"18","num_nodes":"7","size_leaf_vector":"1"}},{"base_weights":[4.046082E-2,-3.816603E-1,6.559858E-1,2.1258919E-3,-1.4186943E-2,3.3629652E-2,1.6160229E-1,-1.001885E-2,2.3662612E-2],"categories":[],"categories_nodes":[],"categories_segments":[],"categories_sizes":[],"default_left":[0,0,0,0,0,0,0,0,0],"id":72,"left_children":[1,3,5,-1,-1,-1,7,-1,-1],"loss_changes":[8.415021E0,9.6614575E-1,2.3075042E0,0E0,0E0,0E0,3.488295E0,0E0,0E0],"parents":[2147483647,0,0,1,1,2,2,6,6],"right_children":[2,4,6,-1,-1,-1,8,-1,-1],"split_conditions":[6.4088E-1,1.0207E-1,5.8649E-1,2.1258919E-3,-1.4186943E-2,3.3629652E-2,8.1813E-1,-1.001885E-2,2.3662612E-2],"split_indices":[0,1,1,0,0,0,1,0,0],"split_type":[0,0,0,0,0,0,0,0,0],"sum_hessian":[2.8143227E1,1.6856024E1,1.1287203E1,2.3515027E0,1.4504521E1,4.197472E0,7.0897303E0,4.2154174E0,2.8743126E0],"tree_param":{"num_deleted":"0","num_feature":"18","num_nodes":"9","size_leaf_vector":"1"}},{"base_weights":[-2.4992004E-3,-1.7366856E-1,2.9068448E-2,-4.0957958E-1,7.150113E-1,4.3586446E-3,-1.47324465E-2,3.339929E-2,-0E0],"categories":[],"categories_nodes":[],"categories_segments":[],"categories_sizes":[],"default_left":[0,0,0,0,0,0,0,0,0],"id":73,"left_children":[1,3,-1,5,7,-1,-1,-1,-1],"loss_changes":[5.0193086E0,6.180031E0,0E0,1.2852142E0,1.9255502E0,0E0,0E0,0E0,0E0],"parents":[2147483647,0,0,1,1,3,3,4,4],"right_children":[2,4,-1,6,8,-1,-1,-1,-1],"split_conditions":[9.5482E-1,7.2752E-1,2.9068448E-2,7.588E-2,2.8056717E-1,4.3586446E-3,-1.47324465E-2,3.339929E-2,-0E0],"split_indices":[9,12,0,9,15,0,0,0,0],"split_type":[0,0,0,0,0,0,0,0,0],"sum_hessian":[2.7596346E1,2.5121246E1,2.4751E0,2.0970245E1,4.1510015E0,2.0138361E0,1.895641E1,2.090653E0,2.0603485E0],"tree_param":{"num_deleted":"0","num_feature":"18","num_nodes":"9","size_leaf_vector":"1"}},{"base_weights":[3.0868791E-2,-1.4579646E-2,8.571324E-1,1.24347E0,-7.7239177E-3,4.7776252E-2,1.7571519E-3],"categories":[],"categories_nodes":[],"categories_segments":[],"categories_sizes":[],"default_left":[0,0,0,0,0,0,0],"id":74,"left_children":[1,-1,3,5,-1,-1,-1],"loss_changes":[1.3848112E1,0E0,6.3507414E0,3.4049015E0,0E0,0E0,0E0],"parents":[2147483647,0,0,2,2,3,3],"right_children":[2,-1,4,6,-1,-1,-1],"split_conditions":[4.1426635E-1,-1.4579646E-2,2.3554163E-1,6.5206E-1,-7.7239177E-3,4.7776252E-2,1.7571519E-3],"split_indices":[15,0,16,14,0,0,0],"split_type":[0,0,0,0,0,0,0],"sum_hessian":[2.821508E1,1.7640741E1,1.0574339E1,7.880675E0,2.693664E0,5.3602805E0,2.520394E0],"tree_param":{"num_deleted":"0","num_feature":"18","num_nodes":"7","size_leaf_vector":"1"}},{"base_weights":[3.166299E-2,-1.5045885E-2,4.9773544E-2],"categories":[],"categories_nodes":[],"categories_segments":[],"categories_sizes":[],"default_left":[0,0,0],"id":75,"left_children":[1,-1,-1],"loss_changes":[2.9618677E1,0E0,0E0],"parents":[2147483647,0,0],"right_children":[2,-1,-1],"split_conditions":[9.2127E-1,-1.5045885E-2,4.9773544E-2],"split_indices":[7,0,0],"split_type":[0,0,0],"sum_hessian":[2.9814816E1,2.3360647E1,6.4541693E0],"tree_param":{"num_deleted":"0","num_feature":"18","num_nodes":"3","size_leaf_vector":"1"}},{"base_weights":[4.4371087E-2,7.1547776E-1,-1.4348397E-2,-1.2781909E-1,1.4012408E0,-9.604097E-3,4.2918795E-3,3.6594614E-3,5.2997746E-2],"categories":[],"categories_nodes":[],"categories_segments":[],"categories_sizes":[],"default_left":[0,0,0,0,0,0,0,0,0],"id":76,"left_children":[1,3,-1,5,7,-1,-1,-1,-1],"loss_changes":[1.1140315E1,8.845198E0,0E0,5.5743086E-1,2.7848883E0,0E0,0E0,0E0,0E0],"parents":[2147483647,0,0,1,1,3,3,4,4],"right_children":[2,4,-1,6,8,-1,-1,-1,-1],"split_conditions":[3.7707E-1,6.4801E-1,-1.4348397E-2,5.171E-1,2.4787378E-1,-9.604097E-3,4.2918795E-3,3.6594614E-3,5.2997746E-2],"split_indices":[4,1,0,1,15,0,0,0,0],"split_type":[0,0,0,0,0,0,0,0,0],"sum_hessian":[2.7606907E1,1.2015105E1,1.5591802E1,5.922203E0,6.092902E0,3.8983374E0,2.0238655E0,2.1285975E0,3.9643047E0],"tree_param":{"num_deleted":"0","num_feature":"18","num_nodes":"9","size_leaf_vector":"1"}},{"base_weights":[2.7027229E-2,-3.7591168E-1,5.9296924E-1,-1.3977446E-2,-0E0,-0E0,9.900568E-1,1.0041426E-2,-8.592311E-3,3.623068E-2,3.6384354E-3],"categories":[],"categories_nodes":[],"categories_segments":[],"categories_sizes":[],"default_left":[0,0,0,0,0,0,0,0,0,0,0],"id":77,"left_children":[1,3,5,-1,-1,7,9,-1,-1,-1,-1],"loss_changes":[7.4631524E0,6.612129E-1,3.2941246E0,0E0,0E0,9.049115E-1,8.773222E-1,0E0,0E0,0E0,0E0],"parents":[2147483647,0,0,1,1,2,2,5,5,6,6],"right_children":[2,4,6,-1,-1,8,10,-1,-1,-1,-1],"split_conditions":[6.948E-1,5.5241E-1,3.530982E-1,-1.3977446E-2,-0E0,2.4885E-1,7.1639E-1,1.0041426E-2,-8.592311E-3,3.623068E-2,3.6384354E-3],"split_indices":[6,6,15,0,0,9,9,0,0,0,0],"split_type":[0,0,0,0,0,0,0,0,0,0,0],"sum_hessian":[2.8486866E1,1.6722359E1,1.1764506E1,1.3233613E1,3.488746E0,5.46641E0,6.298096E0,2.2787237E0,3.1876864E0,4.1363873E0,2.161709E0],"tree_param":{"num_deleted":"0","num_feature":"18","num_nodes":"11","size_leaf_vector":"1"}},{"base_weights":[-3.824917E-2,-4.1609305E-1,1.1986083E0,-1.45745175E-2,-0E0,4.3646887E-2,8.778179E-3],"categories":[],"categories_nodes":[],"categories_segments":[],"categories_sizes":[],"default_left":[0,0,0,0,0,0,0],"id":78,"left_children":[1,3,5,-1,-1,-1,-1],"loss_changes":[1.4056409E1,5.6451035E-1,2.4643517E-1,0E0,0E0,0E0,0E0],"parents":[2147483647,0,0,1,1,2,2],"right_children":[2,4,6,-1,-1,-1,-1],"split_conditions":[8.7796E-1,7.7414E-1,2.8927E-1,-1.45745175E-2,-0E0,4.3646887E-2,8.778179E-3],"split_indices":[5,5,11,0,0,0,0],"split_type":[0,0,0,0,0,0,0],"sum_hessian":[2.6445515E1,2.145961E1,4.9859047E0,1.7600813E1,3.8587961E0,2.683885E0,2.3020198E0],"tree_param":{"num_deleted":"0","num_feature":"18","num_nodes":"7","size_leaf_vector":"1"}},{"base_weights":[-1.6566058E-1,-4.5174354E-1,5.7236505E-1,-1.470756E-2,-0E0,3.469608E-2,-3.7093293E-3],"categories":[],"categories_nodes":[],"categories_segments":[],"categories_sizes":[],"default_left":[0,0,0,0,0,0,0],"id":79,"left_children":[1,3,5,-1,-1,-1,-1],"loss_changes":[6.6110077E0,3.020587E-1,4.1330996E0,0E0,0E0,0E0,0E0],"parents":[2147483647,0,0,1,1,2,2],"right_children":[2,4,6,-1,-1,-1,-1],"split_conditions":[7.1031E-1,8.3713E-1,5.527E-1,-1.470756E-2,-0E0,3.469608E-2,-3.7093293E-3],"split_indices":[2,0,0,0,0,0,0],"split_type":[0,0,0,0,0,0,0],"sum_hessian":[2.7033676E1,2.0333889E1,6.6997876E0,1.8219868E1,2.1140203E0,3.1574159E0,3.542372E0],"tree_param":{"num_deleted":"0","num_feature":"18","num_nodes":"7","size_leaf_vector":"1"}},{"base_weights":[-4.8081647E-3,-1.342446E-2,9.387427E-1,1.2234439E0,-0E0,4.3720726E-2,9.326904E-3],"categories":[],"categories_nodes":[],"categories_segments":[],"categories_sizes":[],"default_left":[0,0,0,0,0,0,0],"id":80,"left_children":[1,-1,3,5,-1,-1,-1],"loss_changes":[1.3074571E1,0E0,2.8982134E0,2.2024918E-1,0E0,0E0,0E0],"parents":[2147483647,0,0,2,2,3,3],"right_children":[2,-1,4,6,-1,-1,-1],"split_conditions":[7.1487E-1,-1.342446E-2,7.8481E-1,5.8734E-1,-0E0,4.3720726E-2,9.326904E-3],"split_indices":[13,0,1,2,0,0,0],"split_type":[0,0,0,0,0,0,0],"sum_hessian":[2.764387E1,1.9748266E1,7.895603E0,5.7622113E0,2.1333916E0,3.3744442E0,2.3877673E0],"tree_param":{"num_deleted":"0","num_feature":"18","num_nodes":"7","size_leaf_vector":"1"}},{"base_weights":[-6.180702E-2,-2.7649263E-1,1.2210052E-1,-1.2488078E-2,-0E0,3.6871853E-1,-1.6629705E-1,2.3488708E-2,-4.5880754E-3,-1.00644715E-2,2.9999628E-3],"categories":[],"categories_nodes":[],"categories_segments":[],"categories_sizes":[],"default_left":[0,0,0,0,0,0,0,0,0,0,0],"id":81,"left_children":[1,3,5,-1,-1,7,9,-1,-1,-1,-1],"loss_changes":[1.290407E0,5.3653026E-1,1.3700777E0,0E0,0E0,2.627513E0,5.2108747E-1,0E0,0E0,0E0,0E0],"parents":[2147483647,0,0,1,1,2,2,5,5,6,6],"right_children":[2,4,6,-1,-1,8,10,-1,-1,-1,-1],"split_conditions":[4.9663E-1,5.6067E-1,7.975E-1,-1.2488078E-2,-0E0,5.2708E-1,3.7614E-1,2.3488708E-2,-4.5880754E-3,-1.00644715E-2,2.9999628E-3],"split_indices":[7,12,7,0,0,10,5,0,0,0,0],"split_type":[0,0,0,0,0,0,0,0,0,0,0],"sum_hessian":[2.7799923E1,1.3114739E1,1.4685184E1,7.7646785E0,5.350061E0,8.176452E0,6.5087314E0,4.319594E0,3.8568583E0,4.351221E0,2.1575103E0],"tree_param":{"num_deleted":"0","num_feature":"18","num_nodes":"11","size_leaf_vector":"1"}},{"base_weights":[1.01976745E-1,-3.9871716E-1,1.2875834E0,3.909853E-3,-1.4569848E-2,4.7821082E-2,7.6002083E-3],"categories":[],"categories_nodes":[],"categories_segments":[],"categories_sizes":[],"default_left":[0,0,0,0,0,0,0],"id":82,"left_children":[1,3,5,-1,-1,-1,-1],"loss_changes":[1.8238153E1,1.2183795E0,1.5306282E0,0E0,0E0,0E0,0E0],"parents":[2147483647,0,0,1,1,2,2],"right_children":[2,4,6,-1,-1,-1,-1],"split_conditions":[7.144E-1,3.552858E-2,6.4062E-1,3.909853E-3,-1.4569848E-2,4.7821082E-2,7.6002083E-3],"split_indices":[12,16,13,0,0,0,0],"split_type":[0,0,0,0,0,0,0],"sum_hessian":[2.6544453E1,1.941828E1,7.1261716E0,2.1129293E0,1.7305351E1,4.438447E0,2.6877244E0],"tree_param":{"num_deleted":"0","num_feature":"18","num_nodes":"7","size_leaf_vector":"1"}},{"base_weights":[9.730524E-4,-3.980479E-1,8.3241475E-1,3.0334246E-5,-1.4431206E-2,1.2894701E0,-7.6406407E-3,4.8456717E-2,3.634187E-3],"categories":[],"categories_nodes":[],"categories_segments":[],"categories_sizes":[],"default_left":[0,0,0,0,0,0,0,0,0],"id":83,"left_children":[1,3,5,-1,-1,7,-1,-1,-1],"loss_changes":[1.0748444E1,8.5325646E-1,6.244908E0,0E0,0E0,2.1332474E0,0E0,0E0,0E0],"parents":[2147483647,0,0,1,1,2,2,5,5],"right_children":[2,4,6,-1,-1,8,-1,-1,-1],"split_conditions":[4.7132164E-1,1.1774E-1,4.9661E-1,3.0334246E-5,-1.4431206E-2,6.5206E-1,-7.6406407E-3,4.8456717E-2,3.634187E-3],"split_indices":[15,6,7,0,0,14,0,0,0],"split_type":[0,0,0,0,0,0,0,0,0],"sum_hessian":[2.8007753E1,1.938588E1,8.621873E0,3.0553625E0,1.6330519E1,6.0020585E0,2.6198142E0,3.894426E0,2.1076324E0],"tree_param":{"num_deleted":"0","num_feature":"18","num_nodes":"9","size_leaf_vector":"1"}},{"base_weights":[-3.426777E-2,-1.4852731E-2,1.177607E0,-6.3537755E-3,5.2251756E-2],"categories":[],"categories_nodes":[],"categories_segments":[],"categories_sizes":[],"default_left":[0,0,0,0,0],"id":84,"left_children":[1,-1,3,-1,-1],"loss_changes":[1.7333652E1,0E0,7.850585E0,0E0,0E0],"parents":[2147483647,0,0,2,2],"right_children":[2,-1,4,-1,-1],"split_conditions":[9.1246E-1,-1.4852731E-2,9.0732E-1,-6.3537755E-3,5.2251756E-2],"split_indices":[8,0,7,0,0],"split_type":[0,0,0,0,0],"sum_hessian":[2.7316978E1,2.0827623E1,6.489355E0,2.081074E0,4.408281E0],"tree_param":{"num_deleted":"0","num_feature":"18","num_nodes":"5","size_leaf_vector":"1"}},{"base_weights":[8.023927E-2,7.352803E-1,-1.39724985E-2,-9.230661E-3,1.2364107E0,-0E0,4.9531333E-2],"categories":[],"categories_nodes":[],"categories_segments":[],"categories_sizes":[],"default_left":[0,0,0,0,0,0,0],"id":85,"left_children":[1,3,-1,-1,5,-1,-1],"loss_changes":[1.0189642E1,7.836189E0,0E0,0E0,5.1993704E0,0E0,0E0],"parents":[2147483647,0,0,1,1,4,4],"right_children":[2,4,-1,-1,6,-1,-1],"split_conditions":[3.7707E-1,5.8665E-1,-1.39724985E-2,-9.230661E-3,4.5606E-1,-0E0,4.9531333E-2],"split_indices":[4,1,0,0,14,0,0],"split_type":[0,0,0,0,0,0,0],"sum_hessian":[2.4349764E1,1.1003992E1,1.3345772E1,3.6275642E0,7.3764277E0,2.210764E0,5.1656637E0],"tree_param":{"num_deleted":"0","num_feature":"18","num_nodes":"7","size_leaf_vector":"1"}},{"base_weights":[5.0010916E-2,-1.4422395E-2,7.324762E-1,-9.971816E-3,1.2611129E0,1.3437376E-3,4.898419E-2],"categories":[],"categories_nodes":[],"categories_segments":[],"categories_sizes":[],"default_left":[0,0,0,0,0,0,0],"id":86,"left_children":[1,-1,3,-1,5,-1,-1],"loss_changes":[1.2003905E1,0E0,9.333378E0,0E0,4.0338116E0,0E0,0E0],"parents":[2147483647,0,0,2,2,4,4],"right_children":[2,-1,4,-1,6,-1,-1],"split_conditions":[6.1568E-1,-1.4422395E-2,5.308E-1,-9.971816E-3,5.9733E-1,1.3437376E-3,4.898419E-2],"split_indices":[10,0,6,0,0,0,0],"split_type":[0,0,0,0,0,0,0],"sum_hessian":[2.8986712E1,1.6390942E1,1.2595771E1,4.2366138E0,8.359157E0,2.670008E0,5.689149E0],"tree_param":{"num_deleted":"0","num_feature":"18","num_nodes":"7","size_leaf_vector":"1"}},{"base_weights":[1.6861705E-2,-4.062699E-1,1.0123394E0,1.8194545E-3,-1.4558617E-2,4.8385076E-2,-2.9011376E-3],"categories":[],"categories_nodes":[],"categories_segments":[],"categories_sizes":[],"default_left":[0,0,0,0,0,0,0],"id":87,"left_children":[1,3,5,-1,-1,-1,-1],"loss_changes":[1.3489125E1,9.984796E-1,7.176749E0,0E0,0E0,0E0,0E0],"parents":[2147483647,0,0,1,1,2,2],"right_children":[2,4,6,-1,-1,-1,-1],"split_conditions":[8.3803E-1,9.83E-2,3.654E-1,1.8194545E-3,-1.4558617E-2,4.8385076E-2,-2.9011376E-3],"split_indices":[5,12,12,0,0,0,0],"split_type":[0,0,0,0,0,0,0],"sum_hessian":[2.7639606E1,2.001469E1,7.6249156E0,2.4146528E0,1.7600039E1,4.5326695E0,3.0922456E0],"tree_param":{"num_deleted":"0","num_feature":"18","num_nodes":"7","size_leaf_vector":"1"}},{"base_weights":[1.8269517E-3,-3.0060762E-1,3.658566E-1,-0E0,-3.8477293E-1,6.386032E-1,-5.1624933E-3,-1.3181366E-2,-0E0,8.427743E-4,2.4291988E-2],"categories":[],"categories_nodes":[],"categories_segments":[],"categories_sizes":[],"default_left":[0,0,0,0,0,0,0,0,0,0,0],"id":88,"left_children":[1,3,5,-1,7,9,-1,-1,-1,-1,-1],"loss_changes":[3.5472806E0,4.9640048E-1,2.5585196E0,0E0,2.1048665E-1,8.251076E-1,0E0,0E0,0E0,0E0,0E0],"parents":[2147483647,0,0,1,1,2,2,4,4,5,5],"right_children":[2,4,6,-1,8,10,-1,-1,-1,-1,-1],"split_conditions":[5.1176E-1,3.826611E-2,6.544E-1,-0E0,7.9299E-1,4.0879E-1,-5.1624933E-3,-1.3181366E-2,-0E0,8.427743E-4,2.4291988E-2],"split_indices":[13,15,0,0,3,7,0,0,0,0,0],"split_type":[0,0,0,0,0,0,0,0,0,0,0],"sum_hessian":[2.8044443E1,1.50583515E1,1.2986092E1,3.2935753E0,1.1764776E1,8.738777E0,4.2473145E0,9.646308E0,2.1184678E0,2.8068013E0,5.931976E0],"tree_param":{"num_deleted":"0","num_feature":"18","num_nodes":"11","size_leaf_vector":"1"}},{"base_weights":[-1.01437435E-1,-1.4727121E-2,7.0487386E-1,1.0854843E0,-2.204993E-3,4.3126877E-2,3.0504982E-3],"categories":[],"categories_nodes":[],"categories_segments":[],"categories_sizes":[],"default_left":[0,0,0,0,0,0,0],"id":89,"left_children":[1,-1,3,5,-1,-1,-1],"loss_changes":[9.837111E0,0E0,3.4617782E0,1.7340231E0,0E0,0E0,0E0],"parents":[2147483647,0,0,2,2,3,3],"right_children":[2,-1,4,6,-1,-1,-1],"split_conditions":[6.6656E-1,-1.4727121E-2,2.7847368E-1,2.858E-1,-2.204993E-3,4.3126877E-2,3.0504982E-3],"split_indices":[13,0,17,5,0,0,0],"split_type":[0,0,0,0,0,0,0],"sum_hessian":[2.73259E1,1.9204231E1,8.121669E0,5.1833944E0,2.9382744E0,2.913366E0,2.2700284E0],"tree_param":{"num_deleted":"0","num_feature":"18","num_nodes":"7","size_leaf_vector":"1"}},{"base_weights":[1.3907437E-2,-3.542943E-1,8.891368E-1,-1.4205615E-2,2.9901266E-2,3.735008E-2,-4.12711E-4,1.0834988E-2,-6.8381783E-3],"categories":[],"categories_nodes":[],"categories_segments":[],"categories_sizes":[],"default_left":[0,0,0,0,0,0,0,0,0],"id":90,"left_children":[1,3,5,-1,7,-1,-1,-1,-1],"loss_changes":[9.866026E0,1.1238675E0,3.3437438E0,0E0,7.394342E-1,0E0,0E0,0E0,0E0],"parents":[2147483647,0,0,1,1,2,2,4,4],"right_children":[2,4,6,-1,8,-1,-1,-1,-1],"split_conditions":[7.9304E-1,6.514E-1,9.9673E-1,-1.4205615E-2,7.3106E-1,3.735008E-2,-4.12711E-4,1.0834988E-2,-6.8381783E-3],"split_indices":[6,6,6,0,6,0,0,0,0],"split_type":[0,0,0,0,0,0,0,0,0],"sum_hessian":[2.6162086E1,1.9011665E1,7.150421E0,1.4750152E1,4.261514E0,4.823679E0,2.3267422E0,2.0236435E0,2.2378705E0],"tree_param":{"num_deleted":"0","num_feature":"18","num_nodes":"9","size_leaf_vector":"1"}},{"base_weights":[5.178334E-2,-4.0210485E-1,1.1570386E0,4.0653707E-3,-1.4609292E-2,1.3682227E0,4.0441086E-3,9.459467E-3,5.0802037E-2],"categories":[],"categories_nodes":[],"categories_segments":[],"categories_sizes":[],"default_left":[0,0,0,0,0,0,0,0,0],"id":91,"left_children":[1,3,5,-1,-1,7,-1,-1,-1],"loss_changes":[1.5829802E1,1.2424138E0,1.1712322E0,0E0,0E0,7.884321E-1,0E0,0E0,0E0],"parents":[2147483647,0,0,1,1,2,2,5,5],"right_children":[2,4,6,-1,-1,8,-1,-1,-1],"split_conditions":[7.2752E-1,1.0032185E-2,8.6164E-1,4.0653707E-3,-1.4609292E-2,1.8733583E-1,4.0441086E-3,9.459467E-3,5.0802037E-2],"split_indices":[12,15,12,0,0,16,0,0,0],"split_type":[0,0,0,0,0,0,0,0,0],"sum_hessian":[2.7248402E1,2.0025572E1,7.2228293E0,2.085693E0,1.7939878E1,5.181899E0,2.0409303E0,2.3699768E0,2.8119223E0],"tree_param":{"num_deleted":"0","num_feature":"18","num_nodes":"9","size_leaf_vector":"1"}},{"base_weights":[-1.6424613E-2,-4.156102E-1,4.7913235E-1,-1.387457E-2,-0E0,8.8473284E-1,-9.33255E-3,-0E0,3.7737314E-2],"categories":[],"categories_nodes":[],"categories_segments":[],"categories_sizes":[],"default_left":[0,0,0,0,0,0,0,0,0],"id":92,"left_children":[1,3,5,-1,-1,7,-1,-1,-1],"loss_changes":[6.000343E0,2.7489352E-1,4.9761276E0,0E0,0E0,2.8039198E0,0E0,0E0,0E0],"parents":[2147483647,0,0,1,1,2,2,5,5],"right_children":[2,4,6,-1,-1,8,-1,-1,-1],"split_conditions":[5.6617E-1,5.3273E-1,2.3554163E-1,-1.387457E-2,-0E0,2.7557E-1,-9.33255E-3,-0E0,3.7737314E-2],"split_indices":[9,9,16,0,0,4,0,0,0],"split_type":[0,0,0,0,0,0,0,0,0],"sum_hessian":[2.6415518E1,1.5144342E1,1.1271176E1,1.3130309E1,2.0140333E0,7.540988E0,3.7301884E0,3.0492368E0,4.491751E0],"tree_param":{"num_deleted":"0","num_feature":"18","num_nodes":"9","size_leaf_vector":"1"}},{"base_weights":[-5.610105E-3,1.0431685E0,-4.4304204E-1,-7.235762E-3,5.0993226E-2,-0E0,-1.4478144E-2],"categories":[],"categories_nodes":[],"categories_segments":[],"categories_sizes":[],"default_left":[0,0,0,0,0,0,0],"id":93,"left_children":[1,3,5,-1,-1,-1,-1],"loss_changes":[1.34739275E1,8.477289E0,2.875533E-1,0E0,0E0,0E0,0E0],"parents":[2147483647,0,0,1,1,2,2],"right_children":[2,4,6,-1,-1,-1,-1],"split_conditions":[2.7718E-1,8.6313E-1,1.0345E-1,-7.235762E-3,5.0993226E-2,-0E0,-1.4478144E-2],"split_indices":[0,7,11,0,0,0,0],"split_type":[0,0,0,0,0,0,0],"sum_hessian":[2.5747347E1,6.5611415E0,1.9186205E1,2.4930418E0,4.0681E0,2.0965853E0,1.708962E1],"tree_param":{"num_deleted":"0","num_feature":"18","num_nodes":"7","size_leaf_vector":"1"}},{"base_weights":[-8.5186556E-2,-3.773156E-1,8.0641735E-1,-0E0,-1.4479392E-2,-1.0984089E-4,3.600107E-2,-9.3142E-3,1.19766E-2],"categories":[],"categories_nodes":[],"categories_segments":[],"categories_sizes":[],"default_left":[0,0,0,0,0,0,0,0,0],"id":94,"left_children":[1,3,5,7,-1,-1,-1,-1,-1],"loss_changes":[8.406697E0,8.899059E-1,2.8850179E0,1.1892827E0,0E0,0E0,0E0,0E0,0E0],"parents":[2147483647,0,0,1,1,2,2,3,3],"right_children":[2,4,6,8,-1,-1,-1,-1,-1],"split_conditions":[7.947E-1,3.8428E-1,6.3491E-1,5.6225E-1,-1.4479392E-2,-1.0984089E-4,3.600107E-2,-9.3142E-3,1.19766E-2],"split_indices":[14,7,1,8,0,0,0,0,0],"split_type":[0,0,0,0,0,0,0,0,0],"sum_hessian":[2.8433758E1,2.2539059E1,5.8946996E0,5.7216916E0,1.6817368E1,2.3263128E0,3.5683868E0,3.717862E0,2.0038297E0],"tree_param":{"num_deleted":"0","num_feature":"18","num_nodes":"9","size_leaf_vector":"1"}},{"base_weights":[-6.363812E-2,-1.3990282E-2,3.2519555E-1,-7.19502E-3,7.1683866E-1,3.216122E-2,-0E0],"categories":[],"categories_nodes":[],"categories_segments":[],"categories_sizes":[],"default_left":[0,0,0,0,0,0,0],"id":95,"left_children":[1,-1,3,-1,5,-1,-1],"loss_changes":[4.9044995E0,0E0,3.9416163E0,0E0,2.464563E0,0E0,0E0],"parents":[2147483647,0,0,2,2,4,4],"right_children":[2,-1,4,-1,6,-1,-1],"split_conditions":[5.7427E-1,-1.3990282E-2,6.2105E-1,-7.19502E-3,7.8803E-1,3.216122E-2,-0E0],"split_indices":[6,0,0,0,0,0,0],"split_type":[0,0,0,0,0,0,0],"sum_hessian":[2.7114199E1,1.3502689E1,1.361151E1,5.5760684E0,8.035441E0,4.6314645E0,3.4039774E0],"tree_param":{"num_deleted":"0","num_feature":"18","num_nodes":"7","size_leaf_vector":"1"}},{"base_weights":[-1.0112749E-2,5.722718E-1,-3.9764488E-1,-9.903713E-3,1.0886667E0,1.2398973E-3,-1.4402808E-2,4.8713353E-2,-6.7596845E-3],"categories":[],"categories_nodes":[],"categories_segments":[],"categories_sizes":[],"default_left":[0,0,0,0,0,0,0,0,0],"id":96,"left_children":[1,3,5,-1,7,-1,-1,-1,-1],"loss_changes":[7.661932E0,7.1728835E0,9.242065E-1,0E0,7.6027803E0,0E0,0E0,0E0,0E0],"parents":[2147483647,0,0,1,1,2,2,4,4],"right_children":[2,4,6,-1,8,-1,-1,-1,-1],"split_conditions":[2.9552E-1,4.0543E-1,2.8112E-1,-9.903713E-3,3.3805E-1,1.2398973E-3,-1.4402808E-2,4.8713353E-2,-6.7596845E-3],"split_indices":[11,2,0,0,13,0,0,0,0],"split_type":[0,0,0,0,0,0,0,0,0],"sum_hessian":[3.0164076E1,1.1361872E1,1.8802204E1,4.186492E0,7.1753798E0,2.555419E0,1.6246784E1,4.926067E0,2.2493129E0],"tree_param":{"num_deleted":"0","num_feature":"18","num_nodes":"9","size_leaf_vector":"1"}},{"base_weights":[-6.365162E-2,-4.0204233E-1,5.697826E-1,-5.6097634E-2,-1.4280163E-2,-5.603701E-3,1.1615375E0,-7.5503164E-3,3.4324995E-3,4.531746E-2,8.059672E-3],"categories":[],"categories_nodes":[],"categories_segments":[],"categories_sizes":[],"default_left":[0,0,0,0,0,0,0,0,0,0,0],"id":97,"left_children":[1,3,5,7,-1,-1,9,-1,-1,-1,-1],"loss_changes":[7.084502E0,3.4435368E-1,5.8143997E0,3.261676E-1,0E0,0E0,7.9768276E-1,0E0,0E0,0E0,0E0],"parents":[2147483647,0,0,1,1,2,2,3,3,6,6],"right_children":[2,4,6,8,-1,-1,10,-1,-1,-1,-1],"split_conditions":[6.4456E-1,2.744E-1,6.9825E-1,4.7522E-1,-1.4280163E-2,-5.603701E-3,4.741E-1,-7.5503164E-3,3.4324995E-3,4.531746E-2,8.059672E-3],"split_indices":[2,4,5,2,0,0,6,0,0,0,0],"split_type":[0,0,0,0,0,0,0,0,0,0,0],"sum_hessian":[2.9148703E1,1.9783985E1,9.3647175E0,4.818693E0,1.4965293E1,4.488188E0,4.8765297E0,2.6204486E0,2.1982446E0,2.2696714E0,2.6068585E0],"tree_param":{"num_deleted":"0","num_feature":"18","num_nodes":"11","size_leaf_vector":"1"}},{"base_weights":[-1.0051758E-1,-1.459751E-2,7.3824495E-1,-1.7796208E-3,3.4757968E-2],"categories":[],"categories_nodes":[],"categories_segments":[],"categories_sizes":[],"default_left":[0,0,0,0,0],"id":98,"left_children":[1,-1,3,-1,-1],"loss_changes":[9.41506E0,0E0,3.514174E0,0E0,0E0],"parents":[2147483647,0,0,2,2],"right_children":[2,-1,4,-1,-1],"split_conditions":[7.5055E-1,-1.459751E-2,4.8815E-1,-1.7796208E-3,3.4757968E-2],"split_indices":[13,0,11,0,0],"split_type":[0,0,0,0,0],"sum_hessian":[2.5089687E1,1.8001415E1,7.0882735E0,2.7930007E0,4.295273E0],"tree_param":{"num_deleted":"0","num_feature":"18","num_nodes":"5","size_leaf_vector":"1"}},{"base_weights":[-4.1654192E-2,-1.43548725E-2,4.7548866E-1,6.905121E-1,-7.4482686E-3,-2.2837385E-3,2.9387789E-2],"categories":[],"categories_nodes":[],"categories_segments":[],"categories_sizes":[],"default_left":[0,0,0,0,0,0,0],"id":99,"left_children":[1,-1,3,5,-1,-1,-1],"loss_changes":[7.32993E0,0E0,2.751126E0,3.1065435E0,0E0,0E0,0E0],"parents":[2147483647,0,0,2,2,3,3],"right_children":[2,-1,4,6,-1,-1,-1],"split_conditions":[5.9733E-1,-1.43548725E-2,4.0619326E-1,1.00949995E-1,-7.4482686E-3,-2.2837385E-3,2.9387789E-2],"split_indices":[0,0,17,16,0,0,0],"split_type":[0,0,0,0,0,0,0],"sum_hessian":[2.8428064E1,1.5805985E1,1.2622079E1,1.0121472E1,2.5006063E0,2.8907695E0,7.230703E0],"tree_param":{"num_deleted":"0","num_feature":"18","num_nodes":"7","size_leaf_vector":"1"}},{"base_weights":[-5.9204485E-2,1.3937517E-1,-1.2905536E-2,-3.7924853E-1,1.0009779E0,-0E0,-1.306538E-2,1.902117E-3,4.005068E-2],"categories":[],"categories_nodes":[],"categories_segments":[],"categories_sizes":[],"default_left":[0,0,0,0,0,0,0,0,0],"id":100,"left_children":[1,3,-1,5,7,-1,-1,-1,-1],"loss_changes":[2.3350337E0,9.792217E0,0E0,2.4013686E-1,1.9811878E0,0E0,0E0,0E0,0E0],"parents":[2147483647,0,0,1,1,3,3,4,4],"right_children":[2,4,-1,6,8,-1,-1,-1,-1],"split_conditions":[7.1102E-1,7.144E-1,-1.2905536E-2,2.7547E-1,4.2705E-1,-0E0,-1.306538E-2,1.902117E-3,4.005068E-2],"split_indices":[3,12,0,7,2,0,0,0,0],"split_type":[0,0,0,0,0,0,0,0,0],"sum_hessian":[2.6884254E1,1.7797487E1,9.086766E0,1.1591628E1,6.205859E0,2.0189075E0,9.572721E0,2.49126E0,3.714599E0],"tree_param":{"num_deleted":"0","num_feature":"18","num_nodes":"9","size_leaf_vector":"1"}},{"base_weights":[5.997863E-2,-3.856879E-1,8.049007E-1,-1.39283715E-2,-4.7930855E-2,4.186805E-2,1.4052834E-1,-7.6820753E-3,4.315433E-3,1.6051332E-2,-8.349814E-3],"categories":[],"categories_nodes":[],"categories_segments":[],"categories_sizes":[],"default_left":[0,0,0,0,0,0,0,0,0,0,0],"id":101,"left_children":[1,3,5,-1,7,-1,9,-1,-1,-1,-1],"loss_changes":[1.0821303E1,3.350401E-1,3.9580364E0,0E0,3.7647408E-1,0E0,1.7352855E0,0E0,0E0,0E0,0E0],"parents":[2147483647,0,0,1,1,2,2,4,4,6,6],"right_children":[2,4,6,-1,8,-1,10,-1,-1,-1,-1],"split_conditions":[4.0686718E-1,2.5717086E-1,5.308E-1,-1.39283715E-2,2.1683867E-1,4.186805E-2,5.9733E-1,-7.6820753E-3,4.315433E-3,1.6051332E-2,-8.349814E-3],"split_indices":[15,17,6,0,15,0,13,0,0,0,0],"split_type":[0,0,0,0,0,0,0,0,0,0,0],"sum_hessian":[2.8346561E1,1.8087227E1,1.0259334E1,1.3344707E1,4.7425213E0,4.026505E0,6.232828E0,2.702894E0,2.039627E0,3.2928085E0,2.9400198E0],"tree_param":{"num_deleted":"0","num_feature":"18","num_nodes":"11","size_leaf_vector":"1"}},{"base_weights":[4.7757506E-2,-1.4872325E-2,4.470891E-2],"categories":[],"categories_nodes":[],"categories_segments":[],"categories_sizes":[],"default_left":[0,0,0],"id":102,"left_children":[1,-1,-1],"loss_changes":[2.5919579E1,0E0,0E0],"parents":[2147483647,0,0],"right_children":[2,-1,-1],"split_conditions":[9.2651E-1,-1.4872325E-2,4.470891E-2],"split_indices":[7,0,0],"split_type":[0,0,0],"sum_hessian":[2.879452E1,2.1716982E1,7.077536E0],"tree_param":{"num_deleted":"0","num_feature":"18","num_nodes":"3","size_leaf_vector":"1"}},{"base_weights":[1.456706E-2,-1.3828276E-2,4.4863242E-1,1.0636597E0,-1.2380191E-1,-6.499217E-4,4.7088936E-2,3.9004902E-3,-1.0316255E-2],"categories":[],"categories_nodes":[],"categories_segments":[],"categories_sizes":[],"default_left":[0,0,0,0,0,0,0,0,0],"id":103,"left_children":[1,-1,3,5,7,-1,-1,-1,-1],"loss_changes":[6.456353E0,0E0,6.409992E0,5.1953993E0,7.214691E-1,0E0,0E0,0E0,0E0],"parents":[2147483647,0,0,2,2,3,3,4,4],"right_children":[2,-1,4,6,8,-1,-1,-1,-1],"split_conditions":[5.3692E-1,-1.3828276E-2,1.2207507E-1,6.8959E-1,2.5489324E-1,-6.499217E-4,4.7088936E-2,3.9004902E-3,-1.0316255E-2],"split_indices":[10,0,17,14,17,0,0,0,0],"split_type":[0,0,0,0,0,0,0,0,0],"sum_hessian":[2.7294538E1,1.2636517E1,1.4658021E1,6.491413E0,8.166608E0,2.484193E0,4.00722E0,3.5395567E0,4.6270514E0],"tree_param":{"num_deleted":"0","num_feature":"18","num_nodes":"9","size_leaf_vector":"1"}},{"base_weights":[1.0606466E-2,-1.4472956E-2,8.998185E-1,-6.4083287E-3,3.736627E-2],"categories":[],"categories_nodes":[],"categories_segments":[],"categories_sizes":[],"default_left":[0,0,0,0,0],"id":104,"left_children":[1,-1,3,-1,-1],"loss_changes":[1.3169325E1,0E0,5.0072546E0,0E0,0E0],"parents":[2147483647,0,0,2,2],"right_children":[2,-1,4,-1,-1],"split_conditions":[7.4526E-1,-1.4472956E-2,5.0717E-1,-6.4083287E-3,3.736627E-2],"split_indices":[11,0,6,0,0],"split_type":[0,0,0,0,0],"sum_hessian":[2.5772524E1,1.6951197E1,8.821326E0,2.06556E0,6.755766E0],"tree_param":{"num_deleted":"0","num_feature":"18","num_nodes":"5","size_leaf_vector":"1"}},{"base_weights":[-3.1232268E-2,6.3555527E-1,-1.4477653E-2,-8.375866E-3,1.0169747E0,4.3043207E-2,-6.131305E-3],"categories":[],"categories_nodes":[],"categories_segments":[],"categories_sizes":[],"default_left":[0,0,0,0,0,0,0],"id":105,"left_children":[1,3,-1,-1,5,-1,-1],"loss_changes":[9.551851E0,5.2011795E0,0E0,0E0,5.847348E0,0E0,0E0],"parents":[2147483647,0,0,1,1,4,4],"right_children":[2,4,-1,-1,6,-1,-1],"split_conditions":[3.3805E-1,3.1565E-1,-1.4477653E-2,-8.375866E-3,3.0420685E-1,4.3043207E-2,-6.131305E-3],"split_indices":[13,2,0,0,15,0,0],"split_type":[0,0,0,0,0,0,0],"sum_hessian":[2.7852333E1,1.0645255E1,1.7207077E1,3.0588224E0,7.5864325E0,5.5753613E0,2.011071E0],"tree_param":{"num_deleted":"0","num_feature":"18","num_nodes":"7","size_leaf_vector":"1"}},{"base_weights":[4.7604494E-2,-2.9181382E-1,2.9095283E-1,4.240492E-3,-1.2839202E-2,-9.997652E-3,5.448988E-1,-7.016066E-3,3.314565E-2],"categories":[],"categories_nodes":[],"categories_segments":[],"categories_sizes":[],"default_left":[0,0,0,0,0,0,0,0,0],"id":106,"left_children":[1,3,5,-1,-1,-1,7,-1,-1],"loss_changes":[2.5988638E0,9.598645E-1,3.3824086E0,0E0,0E0,0E0,7.0378647E0,0E0,0E0],"parents":[2147483647,0,0,1,1,2,2,6,6],"right_children":[2,4,6,-1,-1,-1,8,-1,-1],"split_conditions":[4.7138E-1,1.6126378E-2,3.6629E-1,4.240492E-3,-1.2839202E-2,-9.997652E-3,5.8746E-1,-7.016066E-3,3.314565E-2],"split_indices":[9,15,12,0,0,0,2,0,0],"split_type":[0,0,0,0,0,0,0,0,0],"sum_hessian":[2.7411694E1,1.0765303E1,1.6646393E1,2.029461E0,8.735842E0,4.291578E0,1.2354814E1,5.4307914E0,6.9240227E0],"tree_param":{"num_deleted":"0","num_feature":"18","num_nodes":"9","size_leaf_vector":"1"}},{"base_weights":[-1.1924615E-1,3.19347E-1,-3.7848052E-1,-1.0515034E-2,2.9760692E-2,-1.4216213E-2,3.8358239E-3],"categories":[],"categories_nodes":[],"categories_segments":[],"categories_sizes":[],"default_left":[0,0,0,0,0,0,0],"id":107,"left_children":[1,3,5,-1,-1,-1,-1],"loss_changes":[3.4692724E0,5.9084563E0,1.146991E0,0E0,0E0,0E0,0E0],"parents":[2147483647,0,0,1,1,2,2],"right_children":[2,4,6,-1,-1,-1,-1],"split_conditions":[3.2139E-1,5.7466E-1,8.5472E-1,-1.0515034E-2,2.9760692E-2,-1.4216213E-2,3.8358239E-3],"split_indices":[5,13,13,0,0,0,0],"split_type":[0,0,0,0,0,0,0],"sum_hessian":[2.6230812E1,9.142236E0,1.7088577E1,4.8372407E0,4.3049946E0,1.4985991E1,2.1025875E0],"tree_param":{"num_deleted":"0","num_feature":"18","num_nodes":"7","size_leaf_vector":"1"}},{"base_weights":[-0E0,-1.27534075E-2,5.745106E-1,7.783664E-1,-1.8303186E-3,3.2610893E-2,5.2657593E-3],"categories":[],"categories_nodes":[],"categories_segments":[],"categories_sizes":[],"default_left":[0,0,0,0,0,0,0],"id":108,"left_children":[1,-1,3,5,-1,-1,-1],"loss_changes":[7.646446E0,0E0,2.038032E0,1.2121277E0,0E0,0E0,0E0],"parents":[2147483647,0,0,2,2,3,3],"right_children":[2,-1,4,6,-1,-1,-1],"split_conditions":[6.4162E-1,-1.27534075E-2,3.971031E-1,4.5935E-1,-1.8303186E-3,3.2610893E-2,5.2657593E-3],"split_indices":[0,0,17,9,0,0,0],"split_type":[0,0,0,0,0,0,0],"sum_hessian":[2.7289652E1,1.5952827E1,1.1336824E1,8.600548E0,2.7362769E0,4.2966166E0,4.3039308E0],"tree_param":{"num_deleted":"0","num_feature":"18","num_nodes":"7","size_leaf_vector":"1"}},{"base_weights":[-0E0,-1.1712715E-1,2.3434259E-2,-4.4017977E-1,6.048834E-1,-1.4435394E-2,-0E0,3.5771146E-2,-4.4139812E-4],"categories":[],"categories_nodes":[],"categories_segments":[],"categories_sizes":[],"default_left":[0,0,0,0,0,0,0,0,0],"id":109,"left_children":[1,3,-1,5,7,-1,-1,-1,-1],"loss_changes":[3.0348597E0,7.0585256E0,0E0,3.235016E-1,3.7626219E0,0E0,0E0,0E0,0E0],"parents":[2147483647,0,0,1,1,3,3,4,4],"right_children":[2,4,-1,6,8,-1,-1,-1,-1],"split_conditions":[9.2936E-1,6.5679E-1,2.3434259E-2,8.4478E-1,4.4573E-1,-1.4435394E-2,-0E0,3.5771146E-2,-4.4139812E-4],"split_indices":[9,12,0,13,9,0,0,0,0],"split_type":[0,0,0,0,0,0,0,0,0],"sum_hessian":[2.8530638E1,2.6190763E1,2.3398747E0,1.8921026E1,7.269736E0,1.6904882E1,2.0161452E0,3.0310662E0,4.23867E0],"tree_param":{"num_deleted":"0","num_feature":"18","num_nodes":"9","size_leaf_vector":"1"}},{"base_weights":[-1.7029416E-2,-4.3439254E-1,6.3968253E-1,-0E0,-1.4299018E-2,9.4221383E-1,-7.239708E-3,-2.04225E-3,4.2207934E-2],"categories":[],"categories_nodes":[],"categories_segments":[],"categories_sizes":[],"default_left":[0,0,0,0,0,0,0,0,0],"id":110,"left_children":[1,3,5,-1,-1,7,-1,-1,-1],"loss_changes":[8.746129E0,2.9529023E-1,3.9243197E0,0E0,0E0,5.1773977E0,0E0,0E0,0E0],"parents":[2147483647,0,0,1,1,2,2,5,5],"right_children":[2,4,6,-1,-1,8,-1,-1,-1],"split_conditions":[4.1426635E-1,1.2657E-1,2.3554163E-1,-0E0,-1.4299018E-2,8.138655E-2,-7.239708E-3,-2.04225E-3,4.2207934E-2],"split_indices":[15,6,16,0,0,16,0,0,0],"split_type":[0,0,0,0,0,0,0,0,0],"sum_hessian":[2.8107077E1,1.7878538E1,1.02285385E1,2.0675075E0,1.581103E1,7.7640047E0,2.464534E0,2.780566E0,4.9834385E0],"tree_param":{"num_deleted":"0","num_feature":"18",